near 0.209 0.12066 -0.51692 0.18921 1.1738 -0.16481 -0.22791 0.3913 0.053855 2.8762 -0.31993 -0.047993 -0.040176 -0.30581 -0.57254 -0.16536 0.013718 1.0834 -0.11459 -0.48785 -0.078247 0.20138 -0.10224 -0.17809 0.15899 -0.087648 -0.37264 -0.20278 -0.026101 0.20434 0.28946 0.35092 -0.12837 0.49358 -0.10973 -0.065153 0.25018 0.5835 0.16152 0.11185 -0.2916 0.19914 0.18387 0.010263 0.15872 0.23257 0.011187 -0.33246 -0.31578 -0.60758 0.32251 0.15355 0.0056054 0.67291 0.2235 0.14886 -0.24485 -0.24597 -0.12852 0.39566 -0.17757 -0.13197 -0.27702 0.45691 0.28639 -0.00082553 -0.05382 -0.20509 -0.05484 0.7261 -0.50707 0.032075 0.010222 0.16368 0.24882 -0.11947 0.065617 -0.26678 -0.27806 -0.47809 0.20164 -0.162 0.36895 -0.24119 0.13398 -0.0275 0.27477 0.61306 -0.41476 -0.26354 -0.68423 0.30041 -0.20657 -0.72664 0.18578 0.089848 0.22601 -0.3761 -0.06159 -0.10113 -0.022074 0.18121 -0.25707 0.27813 0.413 0.17786 0.028844 0.72211 -0.21912 -0.00037868 0.19558 -0.085029 0.27698 -0.21979 0.40664 0.1649 -0.047766 -0.21537 -0.63178 0.098407 0.12228 -0.13415 0.28799 -0.82493 0.03238 -0.054428 -0.19096 -0.57745 -0.11849 0.11894 0.08954 -0.26352 -0.143 -0.3857 0.52343 -0.41888 -0.27043 -0.19246 -0.33732 -0.1371 -0.25367 0.34458 -0.21139 -0.5699 0.08584 -0.048083 -0.017024 -0.32187 0.77405 0.090693 -0.63252 0.061315 -0.2127 -0.057175 -0.35053 -0.075101 0.43232 0.17007 -0.026821 -0.41916 0.55225 0.10426 -0.035783 0.55411 0.25465 -0.21756 -0.22992 0.017632 0.40656 0.34525 0.015389 -0.01901 -0.72705 -0.077514 -0.046844 0.30764 -0.33372 -0.044869 0.50481 -0.47325 0.25825 -0.42915 0.21876 -0.31729 0.40358 0.019751 0.092075 -0.34648 0.20037 -0.41438 0.098116 -0.042646 -0.24524 0.26618 -0.081841 0.15431 0.20514 -0.31062 -0.31478 0.12892 -0.030756 0.3224 -0.21674 -0.0082109 0.11919 -0.0083783 -0.36116 -0.30749 0.16624 -0.34684 -0.25191 -0.21601 0.10642 0.10458 0.055745 -0.35659 -0.20013 -0.16086 0.27282 -0.085926 0.72831 -0.065731 0.074887 -0.57175 0.44815 -0.14471 -0.2355 -0.079037 0.032763 0.35113 0.45275 0.28555 1.0841 0.057794 0.02525 0.23186 -0.033694 0.19433 -0.39705 -0.24869 0.27751 0.10684 0.025566 0.27831 -0.54697 0.16244 -0.117 -0.075732 0.09276 0.066867 -0.98063 -0.39987 0.30145 0.050623 0.38437 1.058 0.34583 0.74816 -0.30094 -0.41971 0.22286 -0.15694 0.50451 -0.22678 -0.2548 -0.33907 0.36624 -0.12091 -1.0568 -0.042308 -0.24215 0.30574 0.33391 -0.071792 -0.060618 -0.17277 0.1119 -0.13 -0.22237 0.25344 0.27924 0.048234 -0.15321 -0.43993 -0.23665 0.19425 0.19814 -0.6215 0.29037 -0.49517 -0.20796 0.27464 0.032024 -0.14027 0.1019 -0.040167 -0.14541 -0.076691 -0.22055 0.2677
far -0.12405 0.061105 -0.15319 -0.17896 0.15272 0.074836 -0.10406 0.097694 -0.067452 2.9247 -0.075812 0.010465 0.16625 0.11465 -0.11425 -0.050525 -0.0099338 0.6821 -0.1555 -0.26682 -0.084188 0.35138 0.31317 -0.15449 -0.18365 -0.017688 0.042678 0.048629 0.11284 0.029891 -0.038771 0.24555 -0.056744 -0.12596 0.20925 0.11744 -0.14502 0.011597 -0.099943 -0.017666 -0.16046 0.0088042 0.10398 0.15195 0.25831 0.11378 -0.024322 -0.036561 -0.15259 -0.10214 0.038572 0.20684 -0.12068 0.07921 0.24969 -0.086781 0.0050077 -0.2013 0.20705 0.071063 -0.012779 -0.21761 -0.21472 0.12295 -0.046649 -0.12836 -0.12941 -0.083973 0.22404 -0.087654 0.04304 0.12194 0.27301 0.11382 0.17842 0.19082 -0.044579 0.040171 -0.070256 0.61501 0.11714 -0.040008 0.16459 0.18861 0.056702 -0.30371 -0.13226 -0.45369 0.22784 -0.18774 0.03017 -0.10197 -0.34575 0.42094 0.053909 0.1012 0.44518 -0.19246 0.14093 0.26305 0.00094669 0.060724 -0.11096 0.2768 0.47118 -1.182 -0.23544 0.032619 -0.35251 0.034814 0.037301 -0.45317 0.19361 -0.131 0.01861 0.26227 -0.211 -0.046841 -0.13854 -0.014417 0.12668 0.067462 0.017372 -0.19384 0.030022 -0.017206 -0.027869 -0.20125 -0.053134 0.010055 0.073483 -0.1278 -0.11817 -0.072608 0.31279 -0.22345 -0.14971 -0.20509 -0.050766 -0.091097 -1.4194 0.42653 0.33656 0.0749 -0.064383 -0.41342 -0.31901 0.067646 0.3307 0.32552 -0.044172 -0.15115 0.22014 -0.0040023 0.067715 -0.34265 -0.056212 0.37793 0.033718 -0.35962 0.08577 0.15176 -0.091685 -0.18731 -0.35119 0.051574 0.032996 -0.22576 0.24396 0.13754 0.23303 0.053619 -0.02947 -0.49661 -0.23719 -0.038146 -0.1513 -0.061717 -0.087874 0.018141 0.20537 -0.20872 -0.079346 -0.10066 0.21737 -0.2172 0.070661 -0.37713 0.29887 0.25713 0.22401 0.14179 0.08071 0.11246 0.0607 -0.24802 -0.16476 0.041043 -0.12772 0.15355 0.078978 -0.060636 -0.2236 0.3093 0.0035744 0.062837 0.020414 -0.44285 -0.29032 -0.10008 -0.051888 -0.42951 -0.074151 -0.45881 0.070567 0.0041044 0.4386 0.22145 -0.0385 0.016318 0.18692 0.033149 -0.017532 -0.16685 0.041011 0.039916 -0.12156 -0.14146 -0.14222 0.15145 -0.16434 0.028759 0.42989 0.18384 0.12462 -0.15119 0.26015 -0.062854 -0.19897 0.16882 0.041215 0.11258 0.098489 0.51962 0.044388 0.15827 -0.040793 -0.18934 -0.14912 0.4197 0.1122 -0.11005 0.21306 0.014378 0.2176 0.42718 0.12573 0.20671 -0.065472 0.096272 0.17152 0.21531 0.058988 0.10905 0.07061 -0.27758 0.38608 -0.29468 -0.06899 0.091708 0.0018735 0.15823 -0.13497 -0.68607 0.04349 0.33155 0.30057 -0.17418 -0.26686 0.2477 0.15063 0.045159 -0.068825 -0.075305 -0.024531 -0.14885 -0.13181 -0.31613 0.18051 -0.29703 -0.51257 0.18409 0.018681 -0.015008 0.35739 0.030281 -0.026066 -0.1295 -0.14652 -0.10304
close/near 0.43323 -0.050544 -0.41795 0.17859 0.62497 -0.49033 -0.3182 0.20792 0.06256 2.6989 -0.098785 0.10982 0.14032 -0.2544 -0.090672 -0.063695 0.028294 0.82248 -0.30382 -0.41813 -0.24323 0.18774 -0.10591 -0.29448 0.033459 0.19728 -0.27857 -0.1408 -0.11439 -0.060399 0.080164 0.25389 0.15711 0.06176 0.080593 -0.27858 0.088738 0.16343 -0.21374 -0.069278 0.092872 -0.28509 0.13531 0.37885 0.16441 0.13679 -0.27965 -0.32403 -0.4089 -0.025904 0.1681 0.16271 0.014892 0.27668 0.55846 -0.056764 -0.45575 -0.029214 0.31615 0.38847 0.038506 -0.20012 -0.39903 -0.088294 0.11404 -0.10256 -0.089111 0.11134 0.014135 0.57934 0.43157 0.12831 0.26435 0.32237 0.15245 0.0057835 -0.11603 -0.48275 -0.30889 -0.20933 0.22039 -0.034928 0.17332 0.056786 -0.32588 -0.072662 0.054792 0.24439 0.57714 -0.10087 -0.42385 0.38993 -0.096223 -0.37652 -0.0016242 -0.25063 0.12422 -0.53202 0.36429 0.018784 0.037605 0.3325 -0.25883 0.32249 0.31208 -0.62322 0.2106 0.12742 -0.088381 0.2657 0.067323 -0.05671 0.11133 0.28412 0.017161 0.38091 -0.2077 -0.27855 -0.35934 0.039839 -0.063476 -0.23 0.27587 -0.13973 -0.18876 -0.18287 -0.32082 -0.42048 -0.18303 -0.2846 -0.039785 0.10589 -0.037453 -0.083978 0.13531 0.046407 0.10536 -0.18604 -0.12337 -0.18151 -1.1042 0.19789 -0.1143 -0.27573 -0.057708 -0.35378 -0.27921 -0.13728 0.24879 0.26973 -0.14076 0.078237 -0.14575 -0.009063 -0.01492 0.17764 -0.21338 0.18807 -0.016033 -0.49014 -0.048747 -0.12684 -0.21656 -0.064321 0.065061 -0.25485 -0.10897 -0.12852 -0.057386 -0.026067 0.33727 0.25505 -0.25557 -0.089294 -0.0044008 0.063869 -0.058194 0.093747 0.29056 -0.085996 0.30482 -0.17975 -0.13998 0.0017153 0.1073 -0.15834 -0.014023 -0.44153 0.15546 0.030613 0.013672 -0.19578 -0.40433 0.046078 0.048756 0.021514 0.15545 -0.45706 -0.029102 0.26993 0.080873 -0.038153 -0.23124 -0.083732 0.19019 -0.054446 -0.25338 0.19386 -0.24021 -0.3554 -0.030021 -0.25336 0.18953 -0.1443 0.10108 0.094684 0.14392 -0.038325 -0.019318 0.073455 0.38478 -0.032518 -0.059544 0.006722 0.11959 -0.18586 0.012852 0.22037 0.17226 0.089884 0.17119 0.09758 0.72867 0.1229 0.18062 -0.11118 -0.12112 -0.031496 -0.2223 -0.16549 0.20006 -0.24147 0.00033617 0.45309 0.22224 -0.32952 -0.38079 0.19818 0.22929 0.11867 -0.39263 0.22318 -0.12653 -0.2119 0.45591 0.87768 0.028486 -0.060495 -0.13989 -0.25805 0.18744 0.30128 0.55249 -0.096756 0.22079 -0.233 0.22104 -0.21611 -0.47726 -0.14875 0.18523 -0.44695 -0.25301 -0.1291 0.19537 0.36692 0.16608 -0.092723 -0.44712 0.045941 0.14208 0.00032683 -0.23649 -0.011458 -0.07301 0.047275 0.26132 -0.15018 0.10169 -0.074223 0.089658 0.53492 0.1098 -0.11445 0.28608 -0.062224 -0.1751 0.13181 0.036158 0.31269
tiny/small -0.054094 -0.10604 -0.44605 0.56693 0.12917 -0.32675 -0.5204 -0.3169 0.18072 1.4937 0.12402 -0.35696 0.22847 -0.42127 -0.1096 0.36295 -0.30916 1.4888 0.37217 -0.23772 0.21803 -0.36503 -0.036639 -0.21144 -0.43937 -0.15913 -0.064479 -0.102 0.27346 0.1019 -0.24975 0.12449 -0.40662 0.1265 0.29004 0.018329 0.29937 0.09966 -0.18484 0.27049 0.1111 0.77661 -0.0437 -0.18257 0.58352 -0.24782 0.51358 -0.17606 0.045869 -0.41544 -0.28733 0.19382 -0.61962 0.2307 -0.23203 -0.33869 0.28025 0.056749 0.64988 0.14412 0.18945 -0.040662 0.018946 -0.047658 -0.054848 -0.30338 -0.045216 0.26839 -0.41272 0.41267 -0.020094 0.20479 -0.22321 0.25524 -0.0025059 -0.25986 0.12177 0.097328 -0.40294 -0.40535 0.015865 0.032013 -0.16501 0.24711 -0.37196 -0.11383 0.77399 0.71107 -0.26723 -0.043857 -0.32747 0.89748 -0.28127 -0.52878 0.29049 0.44755 -0.50742 0.081435 0.0097717 0.033854 0.074992 0.14126 0.056152 0.13324 0.27628 -1.4047 -0.081341 -0.63631 0.18773 0.55378 0.017699 -0.22194 -0.33783 -0.2946 0.356 -0.23072 -0.3418 0.20103 -0.30663 0.32083 0.11119 -0.47741 0.039178 -0.42656 -0.12319 -0.15017 -0.031335 -0.21311 -0.090183 0.05544 -0.13909 0.14523 0.25523 0.6747 -0.16377 -0.25323 0.013488 0.2933 0.24863 -0.18126 -2.3454 0.35748 -0.23658 -0.14935 -0.089543 -0.027191 -0.31326 0.29209 0.011104 0.26538 0.42691 -0.051298 0.5096 0.038989 -0.34765 0.08294 0.0474 0.1645 -0.24481 -0.6838 0.18121 -0.1921 -0.062876 0.075443 -0.2639 0.23144 0.054691 -0.060711 0.49245 0.19677 0.046602 -0.035181 0.13714 0.047914 0.19412 0.031752 -0.42531 0.14838 0.025715 -0.16362 0.28995 -0.035878 0.17309 -0.41336 -0.19422 -0.14384 0.25517 0.42468 -0.23344 0.054183 -0.085275 0.0037653 -0.42446 -0.13821 -0.30831 -0.15391 -0.12044 0.50279 -0.049519 -0.281 -0.34266 -0.16557 -0.53277 0.0025801 0.58064 0.25157 -0.3135 -0.26621 -0.27289 0.20802 -0.35508 -0.54402 -0.22015 0.231 0.33332 0.41172 -0.068681 -0.060043 0.10364 -0.80052 0.024574 -0.034618 0.11163 0.11773 -0.0095622 -0.052418 0.097948 -0.077132 -0.026998 0.30966 0.61496 -0.10188 -0.051754 -0.052358 0.28439 0.60826 0.30198 0.22073 0.42708 -0.028942 -0.087951 0.31447 -0.28919 -0.050131 0.2457 -0.14929 -0.3737 -0.17729 -0.095563 0.51769 0.058289 -0.29365 0.055302 -0.30514 0.36034 0.63844 -0.27269 0.70459 0.084809 0.2874 0.042425 -0.16753 -0.24176 -0.083631 -0.076345 0.13185 -0.13925 -0.57113 -0.66031 -0.012539 -0.73403 -0.13356 -0.082074 -0.58864 -0.30724 -0.010362 -0.37187 0.43042 -0.076271 0.16887 0.61297 0.50335 -0.052894 -0.18845 -0.049705 -0.082041 0.088172 0.10798 -0.029556 -0.49609 -0.59518 0.33042 0.58499 -0.19825 -0.48479 0.55463 0.48399 -0.28605 -0.019528 -0.1329
large -0.11454 -0.076981 -0.090518 -0.03373 0.010323 0.24856 -0.40863 0.1535 0.23397 1.9488 -0.19511 -0.20203 0.3776 -0.24588 -0.20486 0.035622 -0.25366 2.0969 -0.29292 -0.051658 -0.29566 -0.22176 -0.46532 -0.06854 0.095998 -0.15195 -0.1733 0.38343 0.24755 0.047344 0.037615 0.32 -0.20636 -0.59901 0.15993 -0.60112 0.12391 -0.078703 -0.33569 -0.09843 0.44589 0.24201 -0.067595 -0.08352 0.049049 0.13737 0.32875 -0.014904 0.11484 0.15085 -0.35017 0.35413 0.24301 0.45559 0.17786 -0.079862 -0.078899 0.026745 -0.11306 0.37537 0.15643 0.1499 0.4311 0.35393 0.28412 -0.26193 -0.082247 0.16726 -0.34539 0.79242 0.49347 0.1207 0.015162 0.19177 0.30803 -0.35571 0.10662 -0.018261 -0.27061 -0.088682 -0.20798 -0.098339 -0.064441 0.38114 -0.17443 -0.14827 -0.054036 0.96407 0.086135 -0.22005 -0.39883 0.04386 0.32301 -0.28335 0.12192 0.14424 -0.49283 -0.008452 0.034563 -0.096364 -0.13253 0.013649 -0.007685 -0.038426 -0.25318 -1.6663 0.26014 -0.47358 0.47413 0.36734 0.1508 -0.082471 -0.16709 -0.073206 0.15581 0.067375 0.015763 0.23977 0.13448 -0.091379 -0.16532 -0.096648 0.37074 -0.11837 -0.43104 -0.44176 0.28594 -0.2697 -0.3936 0.30079 -0.06415 0.1795 0.129 -0.095135 -0.15489 0.034872 -0.083243 -0.36061 0.40816 -0.18256 -1.0162 -0.1713 0.06167 0.27984 0.0061415 -0.4523 0.028111 -0.14065 0.40715 0.099875 0.21607 0.48459 0.24901 -0.0047183 -0.56357 0.10755 -0.27348 0.20528 -0.09181 -0.092159 0.1908 0.21281 -0.51798 0.081786 -0.076566 0.38643 -0.093312 0.34088 0.24668 -0.27692 -0.062287 0.059779 -0.26104 0.36577 0.050554 -0.15312 -0.45689 0.65204 0.51699 0.24037 0.1357 0.052511 -0.065557 -0.66788 -0.58115 -0.28405 0.1057 -0.010522 -0.067489 -0.10374 -0.28856 -0.077957 0.17872 0.14492 0.027102 -0.36098 0.093978 0.28497 -0.30385 0.091699 0.087279 -0.46258 0.073787 0.043664 0.39728 0.075222 -0.03154 0.048758 -0.1733 -0.020304 -0.27738 -0.02696 -0.26406 -0.30174 0.48808 0.034611 -0.46261 -0.29343 -0.068792 -0.15043 0.097356 0.085154 0.3103 0.020856 0.43552 0.090918 -0.11149 -0.19628 -0.1021 0.32817 0.59995 -0.25671 -0.080248 0.033636 0.37296 0.36317 0.03729 -0.43731 -0.066334 0.039238 0.10884 0.54149 0.067891 0.22691 0.48428 -0.10814 0.04359 -0.44579 -0.2702 0.055814 -0.10628 -0.25841 -0.18273 0.19361 0.11457 0.4377 0.11167 0.16997 -0.16124 -0.018634 0.35447 0.25498 -0.067554 0.081857 0.011718 -0.019916 0.15407 -0.28139 -0.54066 -0.18317 -0.13117 -0.3899 0.13857 -1.243 -0.29355 0.17222 -0.040543 0.30385 -0.088464 -0.033753 0.49017 0.47486 -0.33063 0.13269 -0.10082 0.025323 0.49845 -0.029922 -0.06689 -0.2141 -0.66802 0.01367 0.35583 -0.19195 -0.53522 0.76629 0.10845 -0.31223 0.065679 -0.074717
medium -0.33141 0.72818 0.14702 -0.19982 -0.04857 0.066203 -0.30364 0.28112 0.55226 0.63119 -0.24468 0.00074082 -0.30173 0.091667 -0.08707 0.099379 0.2879 2.4699 -0.12598 -0.70625 -0.21063 0.12675 -0.80415 0.17158 0.71547 0.20203 -0.18745 0.26365 0.18256 -0.21828 -0.40728 0.12094 0.48533 -0.72024 0.11498 -0.33317 0.24271 0.1538 0.29531 0.065987 0.76249 0.23689 -0.50888 -0.0041335 0.063521 0.16885 0.1648 0.17032 -0.37431 -0.14003 -0.084568 -0.22966 0.32835 0.28673 0.34195 -0.057599 -0.011636 0.18019 0.16987 0.3147 0.013663 -0.2564 0.655 0.30521 0.094329 -0.75565 -0.22817 0.062893 -0.64339 0.10618 0.32275 0.15246 -0.45461 0.019079 -0.53075 0.27859 0.3072 0.11707 -0.05153 -0.41142 -0.1101 -0.25321 -0.57673 0.23851 0.29028 0.17316 0.16093 1.0147 0.32432 -0.24398 -0.042161 -0.090783 0.47535 -0.013454 0.023742 -0.10093 0.16288 0.22648 -0.55965 -0.38997 0.786 -0.36621 -0.25197 0.20387 0.11524 -1.6532 -0.35624 -0.30132 0.0060715 0.10669 0.10523 -0.6629 -0.30305 -0.52579 -0.053343 -0.014193 0.056557 0.30643 0.83338 0.31105 -0.41503 0.41072 0.15696 0.35065 0.45827 -0.27975 0.55876 -0.12587 -0.31893 0.11071 0.20634 -0.26363 -0.31487 0.2295 -0.48162 -0.11248 -0.17302 -0.32551 0.01683 -0.18132 -1.1093 -0.10624 -0.11212 0.23125 -0.16373 -0.13081 0.043834 0.11407 0.21091 0.47906 0.55925 -0.043628 0.041976 -0.36266 -0.72369 0.1081 -0.42948 -0.097506 -0.39583 -0.2115 0.18973 -0.19853 0.17187 0.62885 -0.49744 -0.49512 -0.15712 -0.42879 -0.1912 -0.086472 0.49513 -0.46465 0.36129 -0.21872 0.25028 0.074683 -0.17629 -0.55129 0.41382 -0.33698 -0.013693 -0.071307 -0.24104 -0.7531 -0.25138 -0.017777 -0.30046 0.37816 0.010376 -0.17227 0.27773 0.50001 0.44143 0.28352 0.12156 -0.29991 0.10939 0.045581 -0.43266 -0.085482 0.36005 -0.24825 -0.090211 0.0091921 0.34155 0.29259 -0.12769 -0.39643 -0.14011 0.573 -0.19169 -0.49925 -0.27578 -0.11411 0.43704 0.39689 -0.40063 -0.19369 -0.34907 0.23694 0.31608 -0.087816 0.42529 0.18797 0.14542 0.29243 -0.02035 -0.27081 0.24708 0.44372 0.043033 -0.32501 -0.39128 -0.017296 0.039033 0.037477 -0.60171 -0.023097 0.081601 -0.1018 0.3895 -0.10255 0.26736 0.053099 -0.054786 0.11819 -0.11333 -0.19896 -0.35946 -0.32998 0.13541 -0.2488 -0.53257 -0.050749 -0.17606 -0.17018 0.37336 -0.23792 -0.039418 0.018305 0.61805 0.22204 -0.016782 -0.091984 -0.55294 0.11388 0.22906 0.11529 -0.20203 0.36864 0.27944 0.014056 0.085658 -0.63971 -0.38117 0.44813 0.06598 0.05084 -0.079836 0.080207 -0.090098 0.20938 0.20005 -0.26246 -0.30612 0.27216 0.37322 0.063656 0.42125 -0.19022 -0.21122 -0.025392 0.082716 -0.25523 -0.12837 0.29391 -0.082736 -0.85977 -0.073272 0.01047
small -0.13247 0.091365 -0.36856 0.069767 0.21653 -0.15473 -0.34733 -0.25184 0.40682 1.9405 -0.31163 -0.23256 0.2287 -0.34631 -0.19952 0.26201 -0.15918 1.9549 0.097901 0.013603 -0.055335 -0.23262 -0.27401 -0.098541 0.065896 -0.14381 -0.20225 0.24159 0.1986 0.099288 -0.070403 -0.017094 -0.30419 -0.33078 0.24031 -0.1538 0.27637 -0.01045 -0.25897 0.056122 0.28241 0.55911 0.026168 -0.5196 0.32447 -0.060208 0.5114 -0.26413 0.10755 -0.30311 -0.18328 0.11473 0.037426 0.35198 -0.069278 -0.27747 0.22377 -0.065394 0.21236 0.42896 0.35606 -0.10525 0.45181 0.31284 0.26066 -0.51451 -0.050307 0.41072 -0.58442 0.44723 0.21641 0.34623 -0.16952 0.14212 0.22336 -0.35902 0.098713 -0.072129 -0.3659 -0.23503 -0.13263 0.18814 -0.11621 0.18982 -0.3516 0.19236 0.066854 0.70878 0.1533 -0.22571 -0.23644 0.29635 -0.054266 -0.58902 0.26629 0.097863 -0.2261 -0.10337 0.088291 -0.21152 -0.12212 -0.031895 -0.21773 -0.030184 -0.011284 -1.5351 0.12569 -0.50814 0.21342 0.52371 0.20903 -0.30413 -0.45218 -0.18614 0.096869 -0.24234 -0.10002 0.11964 -0.25894 0.25399 -0.013764 -0.45053 0.37478 -0.2922 -0.13243 -0.20716 0.15574 -0.25403 -0.17975 0.10817 -0.16602 0.15838 0.12127 0.3859 -0.27174 -0.25981 0.07638 -0.36964 0.46749 -0.40395 -1.4192 0.071445 -0.18708 -0.2256 -0.045988 -0.13542 -0.38542 -0.0042216 0.30359 0.15739 0.24941 0.078888 0.45558 -0.146 -0.51789 0.14343 -0.11685 0.28763 -0.2862 -0.50124 0.35131 -0.071028 -0.20392 -0.10552 -0.11803 0.11867 -0.11246 0.040808 0.33283 -0.24456 0.13073 0.072863 0.048628 0.11805 0.039891 -0.19091 -0.34631 0.35631 0.5719 0.067227 0.25303 -0.0093984 0.069644 -0.58936 -0.49709 -0.16131 0.010717 0.090974 -0.077686 -0.10878 -0.054965 0.004638 0.087008 -0.2065 -0.05145 -0.082455 0.050234 0.17923 0.11066 0.14393 -0.081654 -0.25199 -0.45142 0.12117 0.4061 0.18618 -0.2503 -0.11867 -0.11122 0.18396 -0.30888 -0.26678 -0.32743 0.08166 0.52145 0.26479 -0.23173 0.091158 -0.092964 -0.47525 0.25274 -0.20863 0.385 0.22973 0.16702 0.062036 -0.0005707 0.059431 -0.14515 0.34514 0.48696 -0.051828 0.2285 0.017503 0.13659 0.29871 0.19952 8.3454e-05 0.18924 0.090807 0.061 0.34575 0.10223 0.077022 0.435 -0.095549 -0.18205 -0.62449 -0.32575 0.042571 0.21922 -0.43065 -0.33139 -0.084098 0.28184 0.38334 0.0080347 0.11579 -0.14611 0.32432 0.052424 0.028981 0.045221 0.091712 -0.027598 -0.10509 0.19222 -0.41147 -0.30462 -0.02296 -0.26995 -0.24488 -0.019816 -1.202 -0.28541 0.29838 -0.16117 0.06704 0.060096 0.29309 0.30151 0.45771 -0.25787 0.013373 0.0029925 -0.046138 0.44646 0.048618 -0.066874 -0.21667 -0.57866 0.11571 0.4993 -0.19485 -0.47287 0.50754 0.26966 -0.40586 0.070916 -0.10227
medium-small 0.10162 -0.32647 0.6326 -0.13633 0.38937 0.49801 0.1992 -0.14993 0.50835 -1.4737 0.075069 0.48051 -0.023265 -0.26976 -0.036877 0.095976 0.42608 -0.9631 0.49499 -0.71284 0.26262 0.74188 0.15085 0.43931 0.19445 -0.062918 -0.0045141 -0.037076 0.213 -0.13957 -0.20711 -0.66333 -0.2277 -0.31783 0.31799 0.18718 0.40859 -0.065142 -0.68897 0.27212 0.93501 0.39654 -1.1848 -0.32591 0.3943 -0.21548 0.9275 0.086204 0.15542 -0.3208 0.104 0.5843 0.33273 -0.22715 -0.35166 0.056684 0.0065869 0.59211 0.32998 0.41466 0.3672 -0.33469 -0.070027 -0.14766 -0.032973 0.082575 -0.022988 0.4351 -0.57996 0.71362 0.31343 0.060729 -0.38518 -0.37792 -0.2354 -0.82603 -0.10459 0.44828 -0.21262 -0.012509 -0.27536 -0.014803 -0.5652 0.38937 0.13591 0.2476 0.74543 -0.29643 0.067611 -0.94823 0.32118 -1.2456 0.40103 0.14186 0.040078 0.34342 -0.053177 -0.49709 0.011282 -0.3325 0.84917 0.040253 0.090239 0.2721 -0.053515 -1.9083 0.066353 -0.98062 0.26793 0.36081 0.35626 0.25856 -1.0119 0.19451 -0.30156 -0.22826 -0.34221 -0.14384 0.3475 -0.0006924 -0.25101 0.24307 0.26896 0.31634 0.10824 0.15815 0.23331 -0.035773 -0.44543 -0.036526 -0.70293 0.37923 0.12064 -0.22938 -0.44193 -0.29639 0.12438 -0.30288 0.48704 -0.23898 0.58302 -0.26562 0.015976 -0.078569 0.60206 0.031256 -0.0068324 0.12027 0.67415 0.83631 -0.045599 -0.44746 0.072884 0.15729 -0.55891 0.12896 0.087769 -0.64721 0.070761 -0.48378 0.91026 0.4654 -0.078191 0.19503 -0.016964 -0.25238 -0.59134 0.037338 -0.062211 -0.97901 -0.47885 0.071474 0.50182 0.71712 -0.24609 -0.32717 -0.70027 -0.095893 0.42854 -0.02919 0.32758 0.10319 -0.51905 -0.60435 -0.2564 -0.13934 -0.34129 0.26841 -0.065679 -0.39793 0.29901 0.54905 1.0235 -0.19699 0.12898 0.020151 -0.27651 0.47055 -0.077262 -0.47768 -0.056922 0.065572 -0.21711 0.08565 0.091822 0.25162 -0.2705 0.27799 0.018721 0.32542 -0.098479 -0.29767 -0.48794 -0.096622 0.096612 0.15552 -0.73417 -0.42652 0.46773 -0.24774 0.12251 -0.29337 1.0801 -0.27346 0.06895 0.10558 -0.027161 -0.0093597 -0.34497 -0.2287 0.6012 0.12468 -0.73065 -0.54646 -0.56234 0.45714 -0.34452 -0.26712 0.32096 -0.21297 0.22417 0.15617 0.25703 0.3832 -0.47389 0.39158 0.6121 -0.13697 -0.19698 -0.069531 -0.22288 -0.59901 0.10124 0.16574 0.21279 -0.15892 0.15457 -0.13134 0.31548 -0.18344 -0.45365 0.34125 0.41776 -0.62791 -0.28725 -0.10734 0.60466 -0.3012 -0.83974 0.24322 -0.10985 -0.48049 0.18396 -0.47451 -0.54824 0.80006 -0.15487 1.0134 0.083984 -0.83549 0.18736 0.16978 -0.73215 -0.58799 -0.18535 0.2872 -0.068853 0.14184 0.219 -0.66363 0.41119 -0.83679 0.86232 -0.19414 -0.98407 0.71817 0.16314 -0.63593 0.10771 0.32968
smallest 0.23735 0.089083 -0.20805 -0.13934 0.49215 -0.3226 -0.25707 0.40022 0.038004 0.97928 -0.29836 -0.19129 0.2432 -0.16865 0.11384 0.25911 -0.41476 1.4528 0.8156 -0.0062423 -0.094063 -0.14497 0.31502 -0.32661 -0.19342 -0.23054 -0.13664 -0.10491 0.070614 0.53801 -0.17193 0.30462 -0.23977 0.16785 0.087964 0.054946 0.43073 -0.14886 -0.29718 -0.077176 -0.023565 0.61124 -0.52312 0.59971 0.58265 -0.38149 0.33524 0.31407 0.11556 -0.30609 -0.032073 0.073802 -0.24514 0.40178 0.035175 -0.099184 0.63312 -0.10835 0.83512 0.15418 0.48854 -0.13486 -0.19945 0.45423 -0.21562 -0.28918 -0.17922 0.0376 -0.24542 -0.1697 -0.03803 0.24236 -0.25379 0.052625 -0.30284 -0.11781 0.2242 0.094693 0.11772 0.17297 0.14907 0.21466 -0.33231 0.070858 -0.16313 -0.35345 -0.033949 0.60341 0.49782 -0.4396 -0.27854 0.7289 -0.45598 -0.42102 -0.092999 -0.032739 -0.086184 -0.085487 0.44232 0.573 0.45071 -0.19356 0.10422 0.21507 -0.080277 -1.8347 0.27421 -0.53455 -0.24879 0.39898 0.34297 -0.084256 -0.33533 0.26264 -0.17685 0.1034 -0.29172 0.10415 -0.15745 -0.32666 0.1373 -0.63945 0.60685 -0.35326 -0.23827 -0.26159 -0.41117 -0.455 -0.45568 -0.19011 -0.25842 0.41047 0.14646 0.40969 -0.017263 -0.43596 0.21271 0.49777 0.29426 -0.27522 -0.88053 0.53924 -0.13581 0.26599 0.13486 0.041863 -0.17727 0.49191 0.40587 0.52308 -0.10927 -0.30086 0.58198 0.25474 0.10361 -0.04705 -0.15917 0.19161 -0.32414 -0.54786 0.532 0.42217 -0.12574 -0.77254 0.095192 0.18385 -0.15115 -0.17732 0.19953 0.33178 0.11529 -0.29437 0.12159 -0.17757 -0.070887 -0.01376 -0.62997 -0.11699 -0.010008 -0.054111 0.65241 0.19791 0.1406 -0.1588 -0.16107 0.18127 0.068351 0.32676 0.041454 0.23666 -0.022086 0.16217 -0.069958 -0.39085 0.35063 -0.83437 0.21403 0.20292 -0.078506 0.014982 -0.12412 -0.38407 0.038326 0.3571 0.44289 -0.093898 -0.32085 -0.26722 0.0089528 0.5578 -0.53626 -0.54299 -0.49193 -0.04078 0.20361 0.38843 -0.34132 0.055041 0.091933 -0.66441 0.3731 -0.29093 0.33987 -0.31335 -0.44132 0.19635 0.16372 0.25257 -0.29089 0.41524 1.0465 -0.20027 -0.17106 -0.015501 -0.46483 0.44427 0.058609 -0.092781 -0.073665 -0.012555 0.070879 0.64626 0.47496 -0.22574 0.19084 -0.094699 0.43734 -0.28243 -0.35702 0.099259 0.4663 0.2762 0.1936 -0.24372 0.14879 0.56839 -0.045841 0.94129 0.38919 -0.051864 -0.28085 -0.51337 -0.2809 -0.32026 -0.31598 -0.39709 0.11448 -0.055824 -0.28219 -0.065626 -0.16754 -0.1136 0.19752 -0.56719 -0.11306 -0.17169 -0.10955 0.6103 -0.18893 -0.47615 0.66929 0.48888 -0.15706 -0.066899 0.1142 -0.12731 -0.14054 0.20958 -0.22823 0.33769 -0.49863 -0.057218 -0.018358 -0.053469 -0.0001505 0.52029 0.40001 -0.066067 -0.062938 -0.15703
larger 0.075748 0.024824 -0.017754 -0.2428 -0.0028649 -0.23922 -0.36648 0.46412 0.1595 1.7961 -0.17993 -0.056649 0.53531 -0.16424 0.046026 0.22322 -0.17802 1.8353 -0.36963 -0.03181 -0.45837 -0.069312 0.10104 -0.1325 -0.097916 -0.24941 0.041225 0.28587 0.092841 0.67307 -0.20113 0.35245 -0.28817 -0.57875 0.33021 -0.24023 0.087442 0.014183 -0.084348 -0.22054 -0.05494 0.47505 -0.14081 0.40167 0.13675 -0.29309 0.31353 -0.236 0.13175 0.0096273 0.070216 0.24004 0.25201 0.26623 0.022403 -0.050805 -0.098883 -0.11014 0.010277 0.4916 0.0072747 -0.33731 0.37979 0.43575 0.15876 -0.56021 -0.021916 0.41994 -0.20625 0.20829 0.43329 -0.062581 0.3983 0.33218 0.025609 0.079919 0.12005 0.20321 0.38673 0.076333 -0.13111 -0.11026 -0.044831 0.11943 0.13285 -0.22627 -0.1018 0.63319 0.4681 -0.2756 -0.21627 0.30869 0.26777 -0.088534 -0.21346 0.20513 -0.1514 0.068736 0.2125 0.2798 -0.079992 -0.20564 0.11138 0.25471 -0.049516 -1.7793 0.37659 -0.24532 0.077847 0.52642 0.084704 -0.37666 0.10563 0.066749 0.055619 -0.13531 -0.26049 -0.25831 0.20175 0.32447 0.0172 -0.15678 0.32726 0.069191 -0.11107 -0.23387 -0.045576 -0.16079 -0.36735 0.41536 -0.42494 0.070701 0.052487 0.28007 -0.016157 0.29031 -0.15397 0.00087904 -0.045173 -0.37389 -0.61553 0.20316 -0.23292 0.17572 -0.054113 -0.53591 0.082383 0.082477 -0.13361 0.26756 -0.093281 0.25605 0.41827 0.22198 -0.27625 -0.34942 -0.47113 0.30899 -0.048271 0.0023313 0.39737 0.22233 -0.62469 -0.32216 -0.21968 0.39366 -0.18468 0.27506 0.5125 -0.38628 0.34608 0.18925 0.015399 0.16189 0.17012 -0.17033 -0.34863 0.3771 0.29377 0.096366 0.33853 0.10131 0.20123 -0.54901 -0.33635 0.21852 0.089222 0.0032533 -0.31539 0.38851 -0.11373 0.26853 0.029584 0.1749 0.18141 -0.40962 -0.21932 0.42768 -0.39846 0.1536 0.30459 -0.6522 0.051052 0.10511 0.36909 0.028603 -0.45988 -0.2681 -0.23758 0.13888 -0.19429 -0.29178 -0.061918 -0.18377 0.42139 0.056859 -0.13125 -0.080215 -0.04064 -0.41832 0.66809 -0.098798 0.40712 -0.31123 0.33926 0.27084 -0.015539 -0.12159 0.14359 0.2987 0.46019 -0.4358 0.23917 0.26737 0.57872 0.54684 0.11588 -0.18981 0.17639 0.0080576 -0.098418 0.41059 0.15917 0.1106 0.37321 -0.12037 0.38953 0.14588 -0.42229 -0.050995 0.10517 -0.36689 -0.11625 0.011159 -0.012813 0.71005 0.12208 0.32059 0.085077 -0.21048 0.14411 -0.14621 0.022442 -0.26505 0.053937 -0.017353 0.41396 -0.16118 -0.21163 0.030493 0.098017 -0.090909 0.099536 -1.0652 -0.20183 0.10011 0.038352 0.26601 -0.39037 0.12842 0.30688 0.33406 0.037548 -0.5536 -0.083235 0.072736 -0.041847 -0.11145 -0.15693 -0.141 -0.7358 -0.11127 0.48128 -0.20371 -0.32225 0.5904 -0.32129 -0.54226 0.19059 0.074457
largest 0.10422 -0.017546 0.27474 0.045966 0.58076 -0.29544 -0.26552 0.6281 -0.010255 2.3687 -0.63736 -0.47865 0.63455 -0.22556 0.29845 -0.066258 -0.26695 1.1901 0.056375 0.031421 0.18012 0.20258 -0.03779 0.10597 0.37895 0.096399 -0.031653 0.27651 -0.054354 0.70138 0.54028 0.2522 0.20014 -0.35733 0.1134 -0.069915 -0.10205 -0.09177 -0.079663 -0.22856 0.33356 0.44782 0.1961 0.15181 0.23416 -0.012091 0.13561 0.12214 0.34153 -0.20666 -0.29144 0.23555 0.45899 0.14925 0.23895 -0.19868 0.12387 -0.31792 0.25175 -0.0586 0.2663 0.17766 -0.32964 0.76778 -0.044911 -0.20482 0.14247 -0.30561 -0.38425 0.11565 0.016645 -0.094128 0.25011 0.078082 -0.19474 0.18875 0.03816 0.38795 0.019787 0.1452 0.17884 0.11136 -0.19093 0.12781 -0.30692 -0.52787 -1.372 0.92022 -0.086697 -0.51831 -0.20556 0.51141 0.15062 -0.57579 -0.19746 0.07718 -0.49867 0.015143 0.37788 0.60831 -0.078872 -0.029728 0.03527 0.10915 -0.86666 -1.0076 0.26346 -0.40456 -0.22775 0.046184 0.17748 0.015712 -0.78411 0.15956 -0.21346 0.59772 -0.015189 0.45631 -0.19634 -0.14865 -0.0079665 0.33074 0.89494 -0.45853 -0.74357 0.070749 0.036841 -0.4741 -0.52096 -0.0015626 -0.032452 -0.1428 0.19804 -0.28536 0.137 -0.33522 0.014585 0.052382 -0.032076 -0.13263 -0.39378 0.0352 0.1803 0.090515 -0.14532 -0.44272 0.15913 -0.039157 0.29232 0.16641 -0.4787 0.20062 -0.012111 -0.0044197 -0.2415 0.020589 -0.17663 0.44048 -0.19717 0.162 0.26658 0.17402 -0.72584 -0.36939 -0.24155 0.5553 -0.062877 0.021964 0.2055 0.13109 0.40682 -0.15225 -0.47037 0.38745 -0.75897 0.14201 -0.46413 0.44655 -0.14505 0.41562 0.59039 0.72496 -0.47832 -0.73749 -0.089812 -0.19503 0.21145 -0.12714 -0.014177 -0.33864 -0.2597 -0.34366 0.41598 0.036537 0.29512 -0.95488 0.5019 0.49729 -0.12564 -0.28614 0.074327 -0.63805 0.57648 0.22692 0.55151 -0.43439 0.16602 -0.15323 -0.20426 -0.13397 -0.42391 -0.14874 -0.29471 -0.083314 0.28903 -0.1247 -0.29771 -0.46788 0.22996 -0.32367 -0.24501 0.22165 0.48922 -0.43934 -0.084801 -0.050798 -0.035917 0.22856 -0.34602 0.11921 0.99921 -0.21739 -0.15213 -0.057816 -0.43804 0.23964 -0.13239 -0.56342 -0.14228 -0.30361 0.24089 0.61123 0.57985 0.021883 -0.062009 -0.036961 0.30536 -0.1119 -0.28704 -0.48056 0.093879 0.39864 0.3147 0.063127 0.099447 0.19626 -0.11004 0.92976 0.20822 -0.20624 0.36965 -0.22979 -0.024655 0.29562 0.074032 -0.97967 0.00086768 -0.36827 -0.12779 -0.29959 -0.21148 -0.39018 0.3111 -0.49447 -0.13276 -0.22595 -0.16746 0.28241 0.5851 -0.78174 0.22259 0.36457 0.038685 0.49866 0.090018 -0.18869 -0.31987 -0.11654 -0.14341 0.46302 -0.5094 -0.21113 -0.11419 -0.44646 -0.63441 0.053106 0.12283 -0.051732 0.078582 0.43795
medium-sized 0.10864 -0.097535 -0.03079 -0.56168 0.049297 -0.32 -0.51081 0.040767 0.45867 0.4598 -0.37149 -0.21805 0.18476 -0.13129 0.061265 0.32112 0.20886 0.80674 0.23961 0.10113 -0.12422 0.036049 -0.21292 0.08316 0.10637 -0.30805 -0.1874 0.25212 0.49878 -0.51851 -0.096137 0.020553 0.16465 -0.37046 0.042096 -0.25097 0.3252 -0.11513 -0.21633 0.38311 0.31296 0.26176 -0.3938 -0.28989 0.062411 0.092421 0.40401 0.21381 0.082411 0.1095 -0.61677 0.25433 0.34514 -0.01347 -0.20642 -0.091452 0.2564 0.18953 0.27826 0.55699 0.59499 -0.41961 0.30224 0.06476 0.23688 -0.50634 0.31136 0.31931 -0.79154 0.53453 0.086169 0.083529 -0.5815 0.073674 -0.52321 -0.083181 -0.018594 0.31323 0.020281 -0.45613 0.016026 0.12333 -0.097687 0.41946 -0.18305 0.18969 -0.25437 1.1437 0.22065 -0.10828 0.078217 0.074956 0.88521 -0.14767 0.28335 0.1338 -0.18587 -0.40598 -0.37655 -0.18507 0.41543 -0.20209 -0.21143 -0.066425 -0.5148 -2.2208 0.2033 -0.91592 0.21751 0.58399 0.40959 -0.41475 -0.87459 0.012474 0.074226 0.023831 0.28349 0.10691 0.28715 -0.12021 -0.4267 -0.048641 0.28358 -0.71295 -0.048517 -0.23574 0.82153 -0.031984 -0.3794 0.42722 -0.13915 0.21865 0.28141 0.54704 -0.63086 -0.40165 -0.31928 -0.69951 0.38301 -0.31416 0.0097571 -0.28122 -0.32034 0.078901 -0.090001 0.21307 -0.085313 0.24638 0.66832 0.56553 0.39542 0.3074 0.087594 -0.0018433 -0.58746 0.66712 -0.38334 0.0037454 -0.24323 -0.22316 0.49501 -0.17213 -0.75239 -0.41737 -0.096245 0.12842 -0.27074 -0.50063 0.053916 -0.28444 0.20857 -0.13131 0.09223 0.11243 -0.26524 -0.46657 -0.38232 0.027692 0.42392 0.42726 -0.011812 0.10748 0.099123 -0.66525 -0.55451 0.027964 -0.010143 -0.041651 0.086192 -0.24689 0.368 0.38135 0.5939 -0.19521 0.059174 -0.49566 0.21442 0.22326 0.017303 0.17639 0.02951 -0.49962 -0.28225 0.23594 0.56566 -0.04275 -0.47337 -0.039422 0.058647 -0.03137 0.072977 -0.47602 -0.41635 0.069075 0.3832 0.2711 -0.59369 -0.21497 0.092701 -0.33261 0.32145 -0.40166 0.43944 0.35911 0.44257 -0.17036 0.50518 0.19201 -0.051803 0.051689 0.28983 -0.4109 -0.61407 -0.54913 0.34241 0.5423 -0.24376 -0.86069 0.17526 -0.1334 0.1586 0.32893 0.36157 0.17684 0.30919 -0.25581 -0.0033062 -0.26094 -0.47072 -0.0050721 0.32795 -0.19337 -0.38632 0.63277 0.36734 -0.46939 0.6049 0.15968 0.17281 0.044694 0.45122 -0.061178 0.096621 -0.23549 -0.1681 -0.65654 0.2147 -0.51656 -0.55361 -0.14229 -0.093983 -0.3557 0.33321 -0.60471 -0.37687 0.52348 0.1204 0.48186 0.21352 -0.13905 0.049852 0.28458 -0.24257 -0.1682 -0.069117 0.0020344 0.4447 0.04837 -0.088163 -0.0062152 -0.83645 -0.04207 0.45162 -0.13187 -0.78721 0.562 0.28173 -0.5487 0.073561 0.038712
bigger/large -0.30972 0.0023342 -0.047411 -0.26469 0.075437 -0.39698 -0.011557 0.18099 0.28748 2.0025 -0.28426 -0.19059 0.34074 0.017986 0.0059838 0.17381 -0.1974 0.85152 -0.14744 0.36114 -0.44697 0.044734 0.19792 -0.41709 -0.39447 -0.23797 0.012866 0.21319 -0.00901 0.43418 -0.25643 0.43548 -0.2291 -0.30054 0.71551 -0.096201 0.15285 0.4586 0.026724 -0.29705 -0.07096 0.11299 -0.12718 0.49641 -0.08769 -0.35815 0.36196 -0.2398 -0.14446 0.08482 0.20001 0.36782 0.3867 0.045801 0.21423 0.038459 0.019407 0.10249 0.154 0.35384 -0.17367 -0.4241 0.2555 0.33598 0.28288 -0.69217 -0.058014 0.29337 -0.23019 -0.054818 0.36417 -0.23318 0.60483 0.24758 -0.47982 0.24322 0.37465 0.14253 0.21651 0.21394 -0.038738 -0.049121 -0.0016864 0.18261 -0.16577 -0.015504 0.23451 0.1245 0.38026 -0.20444 0.007545 0.051269 -0.14024 0.012325 -0.054687 -0.017688 -0.31483 -0.14304 0.17567 0.61672 -0.23717 -0.31109 0.29795 -0.11227 0.30968 -1.3508 0.52475 -0.050726 0.010537 0.30675 -0.029462 -0.37665 -0.19359 -0.011485 0.0094064 -0.044628 -0.13119 -0.19326 0.17143 0.066608 0.006154 0.091091 0.20239 -0.079289 -0.12273 -0.050991 -0.092762 -0.25952 -0.49198 0.2805 -0.42275 0.24487 0.013575 0.28278 0.28392 0.027941 -0.23762 -0.11017 -0.20255 -0.3861 -2.0927 0.47592 -0.026037 0.24257 -0.095076 -0.65389 0.26786 0.17373 0.096589 0.43745 -0.12975 -0.050739 0.54379 0.28274 -0.24325 -0.55776 -0.26904 0.14256 -0.00084994 -0.1476 0.27625 0.23872 -0.54218 -0.40648 -0.31988 0.37896 -0.032371 0.15868 0.45801 -0.25331 0.018801 0.055646 0.17224 -0.11859 0.39307 -0.13769 -0.54697 0.62745 -0.057235 0.22986 0.37555 0.15108 -0.18383 -0.13896 -0.22016 0.069524 0.067235 -0.1271 -0.22036 0.41898 0.32969 0.26839 0.19152 0.13019 0.23648 -0.33967 -0.068085 0.37668 -0.2612 0.19978 0.2796 -0.57791 0.17084 -0.066283 0.066168 0.00039997 -0.24632 -0.15638 -0.27621 0.22536 -0.40551 -0.58643 -0.02335 -0.093219 0.32456 -0.022427 -0.23195 -0.36669 -0.022985 -0.4511 0.69151 0.020871 0.29375 -0.38559 0.36648 0.034344 -0.090311 0.059048 0.02893 -0.017562 0.4644 -0.26276 0.24083 0.091797 0.32428 0.35042 0.25167 -0.032046 0.017459 0.225 0.0047042 0.24536 -0.084538 0.25754 0.13843 -0.10691 0.52158 0.016435 -0.25228 0.34798 0.03209 -0.59397 -0.020713 0.069513 0.030471 0.35194 -0.053042 0.26695 -0.054506 -0.1808 -0.035518 -0.046573 0.030868 -0.069791 0.12184 -0.21862 0.24678 -0.1066 -0.072503 0.29352 0.18846 -0.15544 0.10643 -0.83234 -0.15293 0.060941 0.16624 0.32486 -0.15378 0.089491 -0.0070365 -0.11153 -0.20488 -0.16964 -0.036146 -0.058958 -0.17435 -0.19736 -0.17989 0.030131 -0.5364 -0.048476 0.17923 -0.24165 0.018728 0.63792 -0.14224 -0.34342 0.21664 0.28717
big-sized/large 0.49792 -0.80356 -0.50926 -0.66252 0.47271 0.55759 -0.38702 -0.0073989 -0.15871 -1.5278 0.13156 -0.51459 0.029062 0.27237 0.55549 0.24964 -0.52897 -1.1262 0.31896 0.31272 -0.25575 0.067775 0.037571 -0.038869 0.8195 0.40727 0.46154 0.076891 0.093467 -0.15027 0.47994 0.16311 -0.19613 -0.12292 -0.23697 -0.62067 -0.30825 -0.41069 -0.14623 0.086366 0.27507 -0.25887 -0.31053 -0.35814 -0.31245 0.32442 0.80759 -0.25951 -0.15109 0.12305 -0.40957 0.31293 -0.1502 0.68302 0.40474 0.030609 0.17911 0.19131 -0.28905 -0.39093 -0.11599 -0.040802 -0.1279 0.15391 0.52014 -0.25973 -0.3701 -0.30035 -0.12018 0.13509 0.69003 -0.25514 0.10184 -0.5697 0.29229 -0.2105 -0.032675 0.18915 -0.15608 -0.013623 -0.023583 0.0098611 -0.33844 0.1017 0.3247 0.33356 0.81784 0.22456 -0.23087 -0.67017 -0.07171 -0.22498 0.20361 -0.67574 0.31617 0.12978 -0.30209 -0.84743 -0.25658 -0.46183 0.089443 0.36479 -0.02473 -0.22193 -0.14198 -1.6673 0.14953 -0.24868 0.26318 0.10036 0.32717 0.16176 -0.46664 0.55951 -0.067252 0.26825 -0.36476 0.4006 0.17139 -0.060496 0.59582 0.36082 0.29622 0.53891 0.18594 0.041128 0.10689 -0.285 0.20734 0.042008 0.39159 0.26015 0.262 -0.16562 -0.38035 0.23318 0.16536 -0.13503 0.31967 -0.067445 -0.32057 -0.777 -0.5946 0.091554 0.084895 -0.11985 0.039759 0.18313 0.80476 0.66438 -0.22037 -0.24776 0.68305 0.021047 -0.078444 0.34797 -0.061517 0.14905 0.3685 -0.055401 -0.41577 -0.1899 -0.05017 0.55377 0.28089 0.41302 -0.38295 0.13995 -0.11995 -0.095991 -0.20723 -0.26526 0.99447 1.0454 0.62048 -0.41248 -0.83719 -0.37711 -0.31946 0.53879 0.028124 -0.019918 -0.12168 -0.29586 -0.50571 -0.26073 0.35345 -0.078088 0.067874 -0.54299 -0.0074727 0.39729 0.518 -0.097716 -0.42987 0.089277 0.46835 0.64795 0.039503 -0.38445 -0.10656 -0.15199 -0.1913 -0.30525 0.12216 0.45037 -0.098656 0.047469 -0.41887 0.42203 -0.23919 -0.15829 -0.19669 -0.036795 0.0018575 0.1283 0.081122 -0.29596 0.51639 -0.99236 0.19386 -0.48836 0.39921 -0.079775 0.24794 0.46383 -0.34532 0.05052 0.0016067 -0.72723 0.4457 -0.23219 -0.20415 0.11691 -0.29083 0.55187 -0.41598 0.0041643 0.12525 0.55904 0.33488 0.76623 -0.57826 0.26493 -0.15518 -0.2896 -0.40234 -0.63719 0.76588 -0.047699 -0.31375 0.41574 0.37144 0.29701 0.080035 -0.66781 0.32978 0.37141 -0.72889 -0.24706 0.021345 -0.35089 -0.20043 -0.42994 -0.031552 0.70574 -0.52554 0.2604 -0.37982 0.086213 0.073615 -0.34771 0.0071497 -0.054777 -0.19067 0.36348 0.18843 0.7415 0.47769 -0.2898 -0.13317 0.12395 -0.45801 -0.027219 -0.31361 -0.14157 -0.11342 -0.11232 -0.33752 -0.26577 -0.57624 -0.17458 0.066714 -0.040925 -0.072733 0.3865 -0.0016393 0.16906 -0.26115 -0.31741
farthest 0.47559 -0.65218 0.13058 0.014578 0.90017 -0.18311 -0.64722 0.51802 -0.041146 1.0839 0.14138 -0.021397 -0.068345 0.15308 0.43402 0.3047 0.0067726 0.26468 0.38555 -0.049554 0.027283 0.20072 0.29204 0.55772 0.31266 -0.19908 0.23976 0.22748 -0.52948 0.4118 0.1803 0.17798 -0.49857 0.52958 -0.094897 -0.089774 -0.75488 0.020625 0.056762 0.14484 -0.36248 0.30381 -0.36321 0.28278 0.13096 -0.48818 -0.09219 -0.14684 -0.42319 0.12363 0.39925 0.18705 -0.1159 0.44019 0.37808 -0.13259 0.36595 -0.28182 0.51464 0.016692 0.53989 0.20439 0.14542 0.047746 -0.31538 0.20819 0.25966 -0.24207 0.38805 0.2801 -0.13829 -0.01611 0.24449 0.2585 -0.41424 0.40659 -0.6838 -0.24973 -0.26257 0.12563 -0.071917 -0.054421 -0.16102 0.64551 0.55589 -0.17958 0.57211 0.028273 0.2054 -0.21245 0.023077 -0.019896 -0.1566 0.30059 -0.15225 0.076597 -0.079058 -0.23188 0.37542 0.51146 0.67803 -0.69065 0.49924 0.27609 -0.03372 -1.5256 -0.19267 0.083497 -0.68744 -0.025526 0.056446 -0.081084 -0.03469 0.19668 0.32635 0.73073 -0.32211 -0.14733 -0.82035 -0.41058 0.036329 -0.065046 0.59018 0.15724 0.18826 -0.2676 -0.52891 -0.043487 -0.57188 0.048025 -0.53339 0.36374 0.32093 -0.052008 0.051498 -0.72492 0.099068 0.26061 -0.086001 -0.069269 -0.73611 0.26276 -0.50874 0.0099672 0.29386 0.52701 0.31183 -0.26201 0.15544 0.10732 -0.59922 -0.42674 -0.0028817 0.0047325 0.20204 -0.00040379 0.26442 0.68867 -0.067544 0.32952 0.12523 -0.19837 0.098899 -0.086286 0.066179 0.27515 0.23797 -0.11453 0.40552 0.46546 0.36338 -0.53984 0.07367 -0.54067 -0.25389 0.013246 0.023497 -0.09355 -0.60193 -0.61586 0.40077 0.030155 0.08614 -0.11567 0.72131 -0.13912 0.062481 -0.42546 0.053687 -0.009224 -0.042714 0.031395 -0.040093 -0.46374 -0.2649 -0.21925 0.12095 0.28383 -0.14393 -0.056976 0.011141 -0.0056075 -0.038846 0.52546 0.25133 -0.20805 -0.21709 -0.78292 0.10651 -0.44197 -0.039488 -0.54535 -0.13943 -0.11991 -0.70182 -0.20543 -0.14215 0.45486 0.24653 -0.5608 0.47586 -0.6292 0.28013 -0.46964 -0.31429 -0.043828 0.2411 -0.36463 -0.56984 0.14404 0.25534 -0.19633 0.89164 0.65076 -0.32602 0.16411 -0.15879 -0.025313 -0.35808 -0.093604 -0.42614 0.39546 -0.020497 0.50914 -0.31464 0.28809 -0.42512 -0.2956 -0.091623 0.33709 -0.22755 -0.15045 0.71628 -0.020552 0.24867 0.59947 0.14118 0.36339 0.10678 0.039488 -0.34578 -0.52289 -0.26278 -0.66854 0.074452 -0.33238 0.36688 0.17276 -0.90346 -0.038553 -0.21414 0.43335 -0.44868 -0.6361 0.13094 -0.043744 0.01396 -0.27248 -0.15053 -0.44047 0.29935 0.12934 -0.17918 -0.13566 -0.17572 -0.62218 0.33196 0.043922 -0.097695 0.15147 0.040991 -0.23884 -0.32279 -0.48159 0.078997 -0.042324 -0.026238 0.077822 -0.40842 -0.11593
short 0.17198 0.15839 -0.5048 0.26786 0.36994 -0.0014271 0.089497 -0.057843 0.43522 2.1225 -0.46604 0.15845 0.38176 0.061813 -0.074519 0.18711 0.25989 1.2267 -0.35537 -0.47453 -0.39262 0.041198 -0.2448 -0.32853 0.034472 0.37076 0.30654 -0.13263 0.21676 0.32162 0.10211 -0.26318 -0.23738 -0.1077 0.26959 -0.23374 0.36069 0.12745 -0.1808 0.091691 0.4567 -0.095002 -0.19618 -0.37907 0.446 0.22142 0.20173 0.11989 0.097546 0.015671 -0.084507 0.038746 0.11781 0.098824 0.075133 0.19398 0.3304 -0.17017 0.11243 -0.14321 -0.10216 -0.30615 0.35299 0.38569 0.52444 -0.37263 -0.15735 0.10627 0.024336 0.35969 0.6346 0.20091 0.18524 0.28461 -0.14014 -0.18871 0.19395 0.077224 -0.17152 0.021939 -0.12912 0.028077 -0.031146 0.21126 -0.12205 0.1534 -0.075581 -0.068746 0.26877 -0.22565 -0.33139 0.16716 -0.26833 -0.63586 -0.11891 0.2896 0.50288 0.1627 0.32397 -0.49342 0.33971 -0.025704 -0.44471 0.027519 0.059119 -0.83918 -0.073268 -0.4431 -0.089832 0.018794 0.10439 -0.33333 0.20531 0.20452 -0.29552 0.13931 -0.62491 0.12119 -0.12535 0.43065 0.0087063 -0.19083 0.041159 0.085739 -0.13874 0.44745 -0.22628 0.21921 -0.39317 -0.3762 0.39121 -0.14603 -0.014073 0.26713 0.079781 0.077011 0.16071 -0.11294 0.152 0.039136 -1.5631 -0.19213 -0.33609 -0.30682 0.097726 -0.3365 0.13075 -0.32333 0.42735 0.39975 0.22465 0.31461 -0.016659 -0.30456 -0.39051 0.043128 -0.35673 0.050471 -0.041609 -0.20268 0.0032536 -0.30653 0.098605 0.16218 -0.30601 0.020407 0.025754 0.13618 -0.14916 -0.24425 0.05879 0.053449 -0.1897 -0.29538 -0.15345 -0.0058368 0.14028 -0.13347 0.44223 0.18674 -0.15028 -0.59847 -0.42371 -0.16377 0.0024672 -0.11332 -0.19016 -0.0025029 0.16611 0.32555 -0.013568 0.51501 0.015777 0.072764 -0.14224 -0.041661 -0.22383 -0.70945 -0.039735 0.35801 -0.37127 -0.069888 -0.31176 -0.048733 0.18361 0.24845 0.13637 -0.54669 -0.1034 0.55681 0.21236 0.045261 0.24161 -0.43277 0.31543 0.56622 0.14387 0.31531 0.064395 -0.10154 -0.2097 -0.30717 0.28515 0.052251 -0.19132 -0.24484 0.20512 -0.36439 0.22808 0.54292 0.33354 0.43706 0.16587 0.38212 -0.0055322 0.067786 0.042406 -0.075684 -0.28215 0.54639 0.10123 -0.62323 -0.35529 0.28322 0.17978 0.16084 -0.35529 -0.027096 0.18208 -0.20141 -0.30037 -0.15002 -0.15934 0.10231 0.33115 0.30574 0.19127 -0.12094 -0.018512 0.091054 0.19835 -0.022255 0.0075027 0.4335 0.1811 -0.11054 0.32601 0.38836 0.11413 0.060331 -0.28059 -0.39275 -0.081317 -0.26133 -0.12057 0.34137 -0.082426 -0.26531 0.4946 0.17984 0.35649 0.28023 -0.017404 0.2847 0.091426 0.22215 -0.042394 -0.3919 0.39107 -0.19482 -0.18711 0.38358 0.12163 -0.13618 -0.04842 -0.28991 0.25524 -0.17604 -0.16707 -0.33278
tall/short -0.094196 -0.43614 0.22741 -0.83676 -0.02852 0.70264 0.77871 -0.1183 -0.41284 -1.7138 0.054439 0.15078 -0.74045 0.53771 -0.48801 -0.33416 0.48528 -1.3593 -0.1785 -0.15853 -0.40209 -0.48155 -0.94544 -0.33509 -0.13282 0.12301 -0.11638 -0.025511 -0.0081191 -0.2106 1.0946 -0.86472 0.24365 -0.087766 1.2122 -0.12531 0.23425 -0.60517 -1.1273 0.40908 -0.3708 0.12386 -1.0106 -0.84175 -0.25174 0.10592 -0.28554 -0.68826 -0.49958 0.096711 0.032775 -0.042167 -0.24769 -0.02867 -0.56479 0.23776 0.23062 0.7415 -0.36597 -0.34396 0.15102 0.35335 0.49313 -0.57408 0.35981 -0.27559 0.15925 -0.5167 -0.27976 0.76465 -0.078067 -0.0021767 0.16353 -0.096584 0.089095 0.62516 -1.534 -0.046149 0.59578 -0.54726 -0.79741 -0.2343 0.43484 0.054226 -0.64376 -0.20486 1.0991 -0.09717 -1.1393 -0.48549 0.26687 0.1018 -0.23726 -0.18756 0.57906 0.32174 -0.51683 -1.3419 -0.68218 0.43296 0.20249 0.30602 0.13158 -0.84311 0.12526 -1.6474 -0.5596 0.98458 -0.20516 0.54363 -0.044567 -0.11411 0.0088911 -1.1132 0.97959 -0.022076 -0.18286 -0.20725 -0.079999 0.57151 0.14031 0.24364 -1.2693 -0.1185 0.20916 0.60542 0.3502 0.01701 0.48109 -0.073946 1.2027 -0.035065 0.55828 0.58492 0.95075 -0.089077 -0.12109 -0.7674 -1.2833 0.34102 0.92393 -0.22579 0.51105 0.27038 0.28292 0.58453 0.46731 -0.53203 -0.87093 0.20567 0.11693 -1.1303 0.046138 -0.41859 -0.82964 1.0033 -0.21598 0.93758 0.26303 -0.020566 -1.2482 -0.28705 -0.039393 0.89004 0.3018 0.18208 0.36376 0.63476 -0.72457 0.62296 -0.8869 0.50358 -0.37021 1.1267 0.44242 -0.06899 -0.3342 0.11272 0.01674 -0.27313 0.09753 -0.81267 -0.027443 -0.31706 0.61963 -0.30556 -0.36913 -0.60092 -0.34216 0.71126 0.74326 -0.29867 0.25967 -1.6497 -0.56578 0.031841 0.17778 0.13377 -0.1359 0.22575 -0.24013 -0.64087 0.12453 0.56952 0.066135 -0.062884 -0.29069 0.59264 -0.21401 -0.33126 -0.13743 0.57283 -0.20446 0.52195 0.38717 0.53012 0.6311 0.56971 0.99043 0.80729 -0.13317 -0.26575 2.2637 -1.2459 0.0078189 0.56464 0.086946 0.075208 0.073606 -1.1782 0.011457 0.71251 -0.88393 0.22442 0.078563 -0.29141 -0.030212 -0.52957 -0.10403 0.27806 -0.74906 0.16631 0.89486 -0.26978 0.2177 -0.21708 -0.83054 0.14012 -0.061504 0.6697 -1.3379 -0.082774 -0.67883 -0.76824 0.17499 -1.5098 0.31111 -0.056956 0.18699 -0.24815 -0.99912 -0.56106 0.39939 -0.49463 -0.071963 1.5 0.39802 0.75551 -0.58712 1.3547 -0.89856 -0.62937 0.53773 -0.30387 0.2923 0.5058 0.45931 -0.004555 -0.027432 -0.5393 -0.39335 0.23764 0.17358 -0.76855 0.032711 1.2086 -0.79083 -0.26367 -0.62147 0.60172 0.72707 1.0102 -0.28934 -0.30455 -1.3907 0.77968 -0.83159 -1.0955 -0.20295 -0.29271
nearest 0.65263 -0.5824 -0.47857 0.58596 1.2142 -0.81351 -0.047029 0.36846 -0.19622 1.852 -0.80672 -0.013294 -0.069392 -0.64448 -0.024513 0.024101 -0.37667 0.92487 0.19589 -0.32603 -0.16355 0.05417 -0.39424 0.20431 0.22746 -0.023426 -0.68528 -0.2372 0.10417 -0.13648 0.50997 0.29768 0.12106 0.47821 -0.16804 0.10016 -0.63806 0.25327 0.055618 -0.24496 -0.069745 0.027513 -0.1221 -0.14143 0.044419 -0.082792 0.14698 -0.13284 -0.22701 -0.25385 0.20758 -0.25868 0.4573 0.64817 0.15511 0.12303 -0.012867 -0.26326 0.30821 0.20646 0.1923 -0.26906 -0.14449 0.11283 0.2745 0.31457 -0.036 -0.003701 0.42602 0.32841 -0.2127 -0.091079 0.52426 0.31851 0.05555 0.35821 0.01009 -0.96115 0.13794 -0.25581 0.27673 0.07313 -0.0611 -0.31699 0.25031 -0.26432 0.14539 0.80436 -0.10858 -0.59774 -0.48749 0.66284 -0.081991 -0.80257 -0.13385 0.082184 -0.41076 0.36688 -0.091186 0.50411 0.13826 -0.62545 0.20376 0.029811 -0.30556 -0.71316 0.27131 0.23857 -0.24816 0.033072 0.1871 -0.10701 0.37853 0.4847 0.38478 0.41278 0.066622 -0.092037 -0.28488 0.29986 -0.090419 -0.2708 0.078541 -0.6467 -0.41029 0.099705 -0.10646 -0.15489 -0.10518 0.36616 -0.24996 0.16692 0.10211 -0.23353 0.23826 -0.35066 0.16719 0.060888 -0.14543 -0.12056 -0.081978 0.38713 -0.72899 -0.28832 0.15716 0.041973 0.12795 -0.25566 0.51503 0.42549 -0.38387 -0.53752 -0.14065 -0.21821 -0.0042463 0.1063 0.23135 0.39415 0.13828 0.14679 0.14172 -0.33343 -0.32216 0.41239 0.14383 -0.32671 -0.23351 0.20612 -0.3358 0.49497 0.50028 -0.38465 -0.42606 -0.3231 -0.20769 0.22073 -0.18967 0.084783 0.011347 -0.35751 0.43962 -0.6602 -0.1858 -0.14489 0.47177 0.25389 -0.18738 -0.13401 0.087892 -0.20517 -0.19247 -0.12245 0.039376 0.023518 0.0063998 -0.11409 0.2034 0.084356 -0.13131 0.034981 -0.022435 0.1035 -0.59056 0.37505 0.4435 0.27067 0.37731 -0.26882 0.8547 -0.11113 -0.060641 -0.5612 -0.16308 0.095526 0.093193 -0.36291 -0.29036 0.19243 0.085089 0.19013 0.55805 -0.43323 0.42991 -0.77424 -0.10346 -0.1996 -0.30025 0.24996 -0.47437 -0.2027 0.44678 0.12177 0.74382 -0.037693 -0.22249 0.041408 -0.045916 -0.19953 -0.56335 0.56376 -0.1394 0.57658 -0.246 0.069422 -0.63696 -0.29359 0.55239 -0.061357 -0.15808 -0.17334 -0.06248 0.026519 0.033135 0.066431 0.20134 1.24 0.20721 0.40643 0.080061 -0.083743 -0.30244 -0.21972 0.065646 -0.89687 -0.28706 -0.20272 0.49777 0.49563 -0.62013 -0.045016 -0.068793 0.47617 0.069853 -0.11505 -0.30095 -0.0022936 -0.063652 0.28708 0.33053 -0.34376 -0.23787 0.0051911 0.16147 -0.070859 -0.20824 -0.3565 -0.067068 -0.56275 -0.30511 0.25333 0.066057 -0.1418 0.053419 -0.1783 0.25821 -0.053173 0.39365 -0.35238 -0.4738 0.87525
closest/near 0.52079 -0.47082 -0.28478 0.3362 0.92047 -0.35353 -0.11561 0.57522 0.23573 2.2701 -0.045712 0.33627 0.039383 -0.10648 0.18476 -0.12075 -0.21712 0.53703 0.18821 -0.28785 -0.49553 0.01333 0.081323 0.18913 0.50402 -0.18348 -0.18628 -0.032381 0.068517 0.21797 0.31142 0.3994 0.12134 0.40008 -0.2254 0.1566 -0.017186 0.25989 -0.13511 -0.20302 -0.35623 0.19979 -0.084546 0.64864 0.33773 0.14631 0.15326 -0.144 -0.21368 -0.098932 0.037383 -0.11984 0.31277 0.2987 0.040961 -0.044305 -0.25953 0.038379 0.32653 0.53535 0.32206 -0.30044 -0.31445 0.32134 -0.11994 0.082845 -0.11501 0.080464 -0.11246 0.1049 0.079219 0.13663 0.14242 0.4518 -0.45319 0.41458 -0.063115 -0.78141 0.24292 -0.04906 0.085321 0.0018654 0.24847 -0.12621 0.32182 -0.64887 0.098603 0.40878 -0.049532 -0.55047 -0.44434 0.20907 -0.20987 -0.12731 0.20101 -0.23052 0.021876 -0.013537 0.17885 0.45421 0.11574 -0.049154 0.20513 0.021537 -0.18627 -0.76689 0.31101 0.12448 -0.63075 0.29419 0.076881 0.058873 0.23151 0.53707 0.21112 0.46637 -0.14048 -0.31271 -0.61097 0.26613 -0.011353 -0.12879 0.42563 -0.28059 -0.17907 0.12651 -0.26012 -0.39122 -0.46993 0.22067 -0.41017 0.13353 0.18873 -0.45743 -0.068311 -0.36275 -0.038719 0.044671 0.059195 -0.047062 -0.71509 0.20494 -0.17755 -0.0014139 -0.038405 -0.12847 -0.18781 -0.28834 0.25166 0.27359 -0.44617 -0.51202 -0.26394 -0.17071 0.16558 0.34808 0.049465 0.31506 0.015876 -0.019606 0.068663 0.050673 0.029368 -0.060852 -0.0031868 -0.41658 -0.087325 -0.098988 -0.011677 0.29825 0.35355 -0.035216 -0.135 0.0033715 -0.27774 0.25717 -0.0077097 -0.17327 -0.1346 -0.36472 0.49814 -0.54705 -0.16405 -0.082395 0.72002 0.23569 0.0030568 -0.29053 -0.31144 0.07965 -0.14019 -0.0554 0.066648 0.11291 0.10973 -0.30492 0.19129 -0.24094 -0.23472 0.16359 -0.039724 -0.092673 0.046098 -0.048569 0.47378 -0.0092292 -0.057984 -0.27277 0.3304 -0.30184 0.1289 -0.17079 -0.15352 -0.085025 0.096174 -0.099694 -0.056066 -0.071603 -0.12563 -0.16851 0.78955 -0.31189 0.095859 -0.34935 -0.011516 0.094526 0.047452 0.077339 -0.22913 0.050832 -0.02374 0.071466 0.48263 0.11787 -0.32485 -0.029708 -0.054581 -0.1032 -0.36956 0.24373 -0.30758 -0.078507 -0.14883 0.21116 -0.6172 -0.012514 0.12324 0.013604 0.047212 -0.22919 -0.091893 0.03671 0.25889 -0.10086 0.17957 0.58803 -0.21964 0.43439 0.072252 0.033531 -0.23426 -0.2127 0.10754 -0.59273 -0.34031 -0.24131 0.27656 0.47337 -0.54429 0.115 -0.13213 0.72312 -0.1446 -0.021433 -0.12162 -0.13 -0.10157 -0.088843 -0.14348 -0.14859 0.078451 0.10234 0.16007 -0.26984 0.064222 -0.049949 -0.43447 -0.3482 -0.18532 0.16008 0.11163 0.068031 -0.1043 0.42037 0.27646 0.095013 0.011671 -0.32185 -0.098446 0.54821
far-side 0.19356 -0.13941 0.17307 0.70968 0.015256 0.46536 0.033323 0.16198 -0.050882 -1.1406 -0.14284 -0.37493 0.34109  0.72786 0.035021 -0.040677 1.2468 -0.81681 1.0206 -0.90061 0.088396 0.29143 0.41312 0.42071 0.016851 -0.0071508 0.571  -0.42634 0.020043 0.1791 -0.080928 -0.0076887 -0.35295 0.083022 -0.49853 0.052854 -1.119 0.10605 -0.17327 0.30345 -0.19524 -0.13967 -0.35474 -0.108 -0.0096237 0.11221 -0.44678 -0.19966 -0.046103 -0.17056 0.36876 -0.75067 -0.079877 0.15787 0.13367 0.24687 0.63047 -0.59509 0.093176 0.77667 -0.79594 -0.2205 -0.23594 0.63187 0.51166 0.11804 0.83988 0.03651 0.39555 -0.18975 -0.088876 -0.22917 -0.099161 0.4254 -0.65638 -0.53175 -0.1114 0.28161 -0.26313 0.15901 0.14721 0.046151 0.1065 0.81628 0.19277 0.65387 0.56725 -0.35472 -0.59247 -0.5865 0.11798 -0.4802 -0.1263 0.46662 -0.33309 0.25867 0.15099 0.020705 0.15545 0.60381 0.020137 -0.49749 0.26719 -0.16937 -0.46804 -1.8616 -0.39406 0.55322 0.18493 -0.14915 -0.65407 0.26647 0.036588 -0.362 0.52825 0.46032 -0.13576 -0.31231 -0.34929 0.68507 -0.7177 0.0089915 -0.86319 0.20422 -0.12886 -0.35774 -0.48093 -0.0064887 0.03627 0.98959 -1.0755 -0.34984 -0.23196 0.10645 -0.48368 0.14416 0.46892 0.41086 -0.92108 -0.12799 0.45211 -0.82254 0.017091 0.017674 -0.29716 0.45621 -0.011575 -0.63414 -0.055 -0.5714 -0.35449 -0.19894 -0.26223 -0.42082 -0.63111 0.98642 0.89041 0.40079 -0.26027 -0.19118 0.27602 0.24813 -0.6245 -0.036681 1.0801 -0.22594 0.12023 0.10238 -0.043395 -0.029579 0.34433 -0.080279 0.29091 0.22407 0.15875 0.15817 -0.26925 -0.029052 -0.99359 -0.83488 0.15013 0.30125 0.69689 0.39287 0.81262 -0.28623 -0.027999 0.14653 0.45497 -0.36217 -0.017223 -0.52235 -0.28448 -0.11407 0.15017 -0.6816 0.6454 -0.31046 0.30012 -0.03615 0.15846 0.31176 -0.51544 -0.046758 0.41021 -0.21739 -0.3347 0.11112 -0.31402 0.52082 0.57811 -0.18977 -0.11422 0.42668 -0.72215 -0.41457 -0.67299 -0.57632 0.60341 -0.47002 -0.097443 -0.044903 0.16724 -0.63383 0.071892 0.014149 0.076768 -0.76271 -0.22089 -0.10612 0.056708 -0.35816 0.85572 0.17309 -0.30838 0.66561 0.79448 0.26587 0.71877 -1.2907 -0.12117 0.65148 -0.12225 0.30918 -0.81142 0.057732 0.020746 -0.30202 0.83383 -0.33743 -0.4163 -0.050395 0.46323 0.17001 -0.1605 0.022902 -0.18482 0.66009 -0.31683 0.4384 -0.24881 -0.58221 -0.12961 -0.25779 -0.31861 0.087546 -0.19606 0.11205 -0.40026 0.16403 -0.41718 0.26117 0.62308 0.068687 0.37343 0.39976 0.47697 -0.14277 0.79556 -0.88511 0.16355 0.14744 -0.55539 0.09689 0.27931 0.5651 -0.45565 -0.064491 0.45302 0.11399 0.19612 0.65759 0.5044 -0.3384 0.30989 0.10891 0.21552 -0.051018 0.43105 -0.2812
far-end 0.88189 0.41381 -0.296 0.66021 -0.073403 0.72465 -0.43459 -0.54037 -0.71096 -1.3597 0.84335 -0.5596 -1.1996 -0.087619 0.041152 0.096867 -0.080941 -0.76681 -0.68927 -0.56365 0.1357 0.048645 0.33251 -0.24731 -0.049508 0.3566 -0.32824 -0.18654 -0.14137 -0.34354 0.56955 0.53433 0.22458 -0.41326 -1.0691 0.52789 -0.46764 -0.16758 -0.3999 -0.0067402 0.84908 0.70534 -1.0304 -0.14063 -0.18947 -0.011254 0.56127 -0.51853 -0.47817 -0.16831 -0.3351 0.030576 0.50825 -0.15687 -0.31226 0.76095 0.091671 -0.15432 -0.19897 0.59615 0.4609 0.75596 -0.3272 0.1061 0.50244 0.34528 0.73107 -0.13562 -0.7792 -0.50027 0.34213 0.31427 -0.0056051 0.27056 0.1239 -0.26917 -0.17798 0.070106 0.06868 -0.22969 -0.010457 0.022052 0.36578 -0.18823 0.4531 -0.026213 0.76175 -0.36804 -0.26166 -0.69672 -0.73384 0.76932 -0.0059338 -0.46443 -0.59808 -0.19859 0.36821 -0.49904 0.25418 0.60518 0.88298 0.19589 -0.53512 -0.79221 -0.71404 -1.6963 0.15807 0.25352 -0.012819 0.22751 -1.3338 0.50865 -0.039771 0.53864 0.93284 0.25129 -0.54846 -0.1562 -0.17609 0.47732 -0.53813 -0.3327 -0.15704 -0.02924 0.1215 -0.61176 -0.39733 0.46761 0.13793 0.37825 -0.82376 0.33345 0.049311 -0.2122 -0.34995 -0.22673 0.26977 0.40723 0.37557 0.31207 0.68881 -0.2496 -0.54256 -0.35555 0.16733 0.52174 0.19869 -1.2615 -0.34301 -0.19726 -0.92656 -0.1791 -0.15272 0.47382 0.66318 0.25426 1.209 0.092815 0.55993 -0.30267 -0.085687 0.14865 0.31371 0.43278 0.2842 -0.43864 0.0013124 0.15558 -0.44134 0.3292 -0.15946 -0.64601 0.54915 0.64011 -0.32866 0.41077 0.17398 -0.23902 -0.31084 0.067072 -0.3492 -0.59148 -0.22325 0.024256 0.30624 0.61717 -0.13589 0.075659 0.24744 -0.46331 0.58169 0.025116 0.49722 0.037741 -0.16423 -0.35424 -0.073786 -0.67787 -0.12473 -0.17448 0.29369 0.59337 -0.5617 -0.0052503 0.37917 -0.24827 -0.026824 -0.11676 -0.0012664 0.33348 0.20699 -0.090719 -0.83097 -0.11886 0.024327 -0.26025 0.15953 0.62066 0.38861 -0.00478 0.17857 -0.32607 0.36857 -0.1362 0.051944 -0.32458 1.0062 -0.29066 -0.014455 -0.60171 0.022554 0.067808 0.73913 0.15945 -0.6472 0.30462 -0.20443 -0.50951 0.46037 -1.2658 0.046226 0.12115 -0.43201 -0.042489 0.2006 0.2634 0.17665 -0.009032 0.080722 0.14068 -0.36413 -0.25233 1.0318 0.19213 0.33922 0.21483 0.52305 0.045745 0.22634 0.31145 0.15385 -0.64996 0.17355 -0.13029 0.11416 -0.011823 0.81359 0.33712 0.85685 -0.44087 -0.54563 0.589 0.45848 0.15398 0.13669 0.044497 -0.78046 0.98213 -0.053661 -0.21181 -0.76073 0.11439 -0.11335 -0.27977 0.24295 -0.13014 -0.1252 0.58066 0.15486 0.93435 0.22283 1.1359 -0.77849 -0.05945 0.38318 0.13976 0.1432 0.56385 -0.43404 0.10479
faraway 0.59491 -0.22216 -0.22997 0.096226 0.63796 -0.13431 -0.18271 0.016572 -0.35631 1.029 0.016906 -0.12905 -0.43689 -0.6041 0.15935 -0.049235 0.34949 -0.35698 0.37454 0.038623 0.075885 -0.10475 0.10057 0.73629 -0.2346 -0.30826 0.36523 -0.13896 0.0082425 0.31792 0.12996 -0.21413 -0.60347 -0.045317 -0.19579 0.15592 -0.18264 -0.024679 -0.022061 -0.02486 0.26388 -0.15474 -0.29596 0.093787 0.059631 -0.24184 -0.039053 -0.19353 -0.20469 -0.15279 0.2335 0.17754 -0.63407 0.10816 0.55315 0.089886 0.32245 0.026516 0.23005 0.38381 0.82731 -0.28155 -0.35306 -0.45401 -0.24762 0.56617 0.024009 0.2381 -0.065991 0.25169 0.044966 -0.25213 -0.056997 0.52779 0.0049103 0.057604 -0.30031 0.5249 -0.20575 -0.4449 0.17268 -0.26546 -0.27291 0.58266 0.14844 -0.19002 0.31144 -0.018342 0.25984 -0.21142 -0.4944 0.26958 -0.50958 0.13079 -0.083326 -0.038869 -0.28217 -0.0088085 0.048182 0.44044 0.56482 0.28305 -0.14881 -0.033214 0.24015 -1.7846 0.10848 0.24432 0.12778 0.21588 0.35451 -0.24624 -0.01608 0.43103 0.10358 0.32853 0.32819 0.29169 -0.37127 -0.40896 0.20967 -0.15712 0.065522 -0.054413 0.42706 -0.50603 -0.12866 -0.063352 -0.13175 0.34571 0.16597 -0.15782 -0.060164 -0.039043 -0.49265 -0.20686 -0.91047 -0.32909 -0.35121 -0.16457 -0.93791 -0.12223 -0.051894 -0.16791 -0.36791 0.23381 0.48674 -0.035796 0.056812 -0.11566 0.54808 0.041671 -0.10044 0.20823 0.039159 -0.080927 0.33725 0.18321 0.35653 0.0055269 0.35054 -0.012341 0.2805 0.4536 -0.055192 0.44826 0.30415 0.19591 0.81081 0.21152 -0.015459 0.22397 0.39356 0.2096 0.16283 0.52872 0.16769 -0.70819 -0.23252 0.060357 0.2781 -0.36043 0.43734 0.075281 0.40959 -0.47868 -0.13056 -0.2685 0.26335 -0.11004 -0.059281 0.47551 0.25957 -0.58681 -0.79028 -0.13007 -0.14329 0.04096 -0.33325 -0.43372 -0.31887 0.16346 0.076941 0.43408 0.21109 -0.19174 0.32909 -0.39892 0.41707 -0.23374 0.37751 -0.78082 0.088637 -0.011746 -0.19336 -0.54286 0.49995 0.16764 0.54029 -0.55042 0.40764 -0.476 -0.25889 0.2095 -0.13937 0.20814 0.085325 0.14799 -0.5055 -0.10314 -0.011053 0.0069672 0.43116 0.039761 -0.1413 0.21893 -0.41426 -0.093372 0.23116 -0.16501 -0.47597 0.60235 0.12853 0.01223 -0.075131 -0.14381 -0.4272 0.062128 0.24213 0.16071 0.15512 -0.28365 -0.07695 0.035504 0.19495 0.45733 -0.6919 0.14504 -0.40375 0.51951 -0.62167 -0.091126 0.13664 -0.095095 0.098362 -0.23211 0.13544 0.10089 -0.71752 0.49593 -0.68625 0.64777 -0.24716 -0.34541 0.1768 0.35965 0.16143 0.11964 -0.17548 -0.45114 -0.16681 -0.73989 0.043462 -0.19619 0.2501 -0.23445 0.58405 0.079553 -0.37517 -0.2306 -0.16307 0.1298 0.16346 -0.066787 0.16163 0.37847 0.01753 0.0055694 -0.12303 0.37474
in/near 0.5436 -0.74475 0.16305 -0.41232 0.84233 -0.31031 0.17518 -0.66398 0.17105 -0.2419 -1.0906 0.14413 -0.17257 -0.33352 -0.0098313 0.063997 0.51042 -0.62351 0.019526 -0.21701 -0.17942 -0.36667 0.067126 -0.3238 -0.41805 0.44951 -0.28696 -0.25823 0.32521 0.51204 0.57211 0.57613 -0.07961 -0.020085 0.4431 0.57709 0.31748 0.14819 -0.58793 0.18931 -0.2646 0.48347 -0.33212 -0.18122 0.34491 0.56859 0.1138 -0.49513 0.069328 -0.38828 -0.057898 0.11987 -0.31634 0.48747 -0.063092 -0.35215 -0.28103 -0.11102 0.22789 0.46097 -0.20162 -0.27599 0.28872 -0.24144 0.46223 -0.39373 -0.13463 0.32708 -0.56269 0.49879 0.081698 0.73037 -0.030741 0.23527 -0.11586 -0.18597 -0.29906 -0.27204 0.36359 -0.44299 -0.33024 -0.086986 0.075199 -0.51301 -0.83688 0.72175 0.32034 0.0030003 -0.70184 -0.84016 0.13903 -0.030457 -0.37791 -0.34896 0.56169 0.7135 0.032995 -0.3492 -0.21547 0.027366 -0.72644 0.35807 0.057665 0.013222 0.12893 -0.11735 -0.34909 -0.084655 -0.04404 -0.47992 -0.29302 -0.011425 0.33203 0.060175 0.52676 -0.20741 0.086845 -0.023041 -0.35066 -0.21943 -0.096096 -0.14589 -0.014707 -0.61764 1.2776 -0.32624 -0.39152 -0.16815 0.46682 -0.23277 -0.067505 -0.18381 -0.30876 -0.47611 0.53444 -0.35076 -0.21254 -0.072363 0.32759 0.09357 1.7414 0.46192 -0.45621 -0.40635 -0.084386 -0.35943 0.1068 -0.015402 0.7546 0.12626 0.1015 -0.57072 -0.34588 0.092464 0.12722 0.21408 0.28023 -0.16059 -0.088251 0.024277 -0.20667 -0.22261 0.32832 0.35146 0.78202 0.084078 -0.44789 0.54526 0.075045 0.23306 0.28023 0.016219 0.4816 0.20463 0.92822 0.8751 -0.5395 -0.30947 0.74733 -0.339 0.14115 -0.80207 -0.37491 0.15443 0.46874 -0.20328 0.28792 -0.23635 0.36689 -0.63036 -0.15803 0.44885 -0.18328 -0.24928 -0.20328 -0.094635 -0.55999 0.34353 0.11785 -0.24335 -0.20154 0.17428 0.11983 -0.23596 -0.017021 0.27637 0.23531 -0.74723 0.57193 -0.19196 -0.35062 -0.06315 -0.27329 0.38856 -0.66761 -0.17892 0.26183 -0.55513 -0.25068 -0.11938 0.88854 -0.19791 0.32991 -0.79773 0.59622 -0.21442 0.59373 0.75616 -0.39276 -0.1083 0.24929 0.26526 0.51974 0.3069 0.58137 0.26497 0.115 0.1524 -0.10825 -0.15854 -0.058596 0.30529 -0.72765 0.54443 -0.2951 0.10173 -0.10408 -0.18426 0.65818 0.0068044 0.024637 -0.41353 0.024916 0.53326 -0.17137 0.095965 -0.037616 0.3388 -0.45973 0.0073392 -0.18532 -0.23502 -0.46031 -0.49908 -0.3821 0.027697 -0.32436 -0.33395 -1.0544 0.58803 -0.66456 0.35729 0.61067 0.010416 0.47293 0.088717 0.44936 0.61224 0.2478 0.38014 -0.042733 -0.32613 -0.25303 0.022815 -0.43459 0.010161 -0.28036 -0.56171 0.069397 -0.14104 0.11977 0.51497 -0.24944 -0.64048 0.60623 -0.099099 -0.42575 -0.036644 -0.16093 0.49498
behind 0.18579 -0.010129 -0.13755 0.20769 0.26622 -0.0060736 -0.12579 0.19609 0.014909 2.8443 0.034559 -0.0019055 -0.028285 0.1172 0.078456 0.019189 0.11432 0.49007 -0.32043 -0.25783 0.16964 0.137 0.24566 0.095428 0.10356 -0.31993 0.061278 0.011557 -0.10629 -0.0972 0.14496 0.068968 -0.24279 0.06701 0.36527 -0.15847 -0.25294 0.31243 0.10448 -0.15872 0.071382 -0.11491 -0.14322 0.17436 0.30656 -0.059215 -0.16217 -0.24907 -0.25933 0.16878 0.37559 -0.07759 -0.28923 0.50507 -0.35155 -0.063272 -0.1154 -0.12509 0.081319 0.038995 -0.054416 0.11004 -0.078468 -0.078336 0.094151 -0.35558 -0.053927 -0.28573 0.33126 0.26501 -0.28715 -0.13276 0.60299 0.34765 -0.20583 -0.11509 0.22215 -0.63865 0.02422 0.0076827 -0.15256 0.24347 0.085261 -0.083851 0.153 0.15471 0.067118 -0.053165 -0.19789 0.33348 -0.073425 -0.066672 -0.24027 0.21722 0.0056203 -0.14151 0.061526 0.031028 -0.11631 -0.57047 -0.04129 -0.13383 0.016517 -0.31791 0.37647 -0.62523 0.23729 0.21262 -0.11983 -0.0055431 0.17899 -0.0023978 0.11523 -0.17104 0.13412 0.27289 -0.21536 0.26439 0.13895 0.065078 -0.32611 -0.32493 0.23862 -0.11441 -0.29891 -0.020527 0.16708 0.07347 -0.18094 -0.003466 -0.25657 0.47989 0.084633 0.073253 0.32911 -0.10323 0.19771 -0.032938 0.22468 -0.12951 -1.7329 -0.11141 -0.0078703 -0.16128 -0.026929 -0.13211 -0.26912 0.095137 0.0030246 0.33685 0.022867 -0.33992 0.1271 -0.22018 -0.07952 0.15086 -0.38643 0.36407 -0.035679 0.23901 -0.67967 -0.00071033 -0.21888 -0.0048113 0.29106 -0.074208 -0.047532 0.1348 0.44182 0.065778 0.21133 -0.37565 -0.023378 -0.030639 -0.087912 0.19096 -0.13684 0.41384 -0.056714 -0.31057 -0.033966 0.067649 0.20011 -0.34391 0.18027 0.32807 -0.13467 -0.12119 0.1395 -0.054931 0.10023 -0.11925 -0.0040463 0.2669 -0.088816 0.2071 0.018071 -0.098312 -0.2858 0.38172 -0.039395 0.021884 -0.37136 -0.18085 0.26559 0.27271 0.013559 -0.1483 -0.17675 -0.28196 -0.39122 -0.36364 0.17371 -0.15949 0.24108 -0.10667 -0.098403 -0.11698 -0.20369 -0.17437 -0.1246 0.09132 -0.31096 0.24732 0.068248 -0.43313 0.21038 0.013697 -0.1975 0.40154 -0.033004 0.16987 0.12884 0.025859 -0.26752 -0.22278 0.19331 0.30246 0.14871 0.2467 -0.031581 0.31618 -0.3135 0.32199 -0.15591 -0.10902 -0.4591 0.02235 -0.070549 0.17254 0.034518 -0.26599 0.12136 -0.075473 -0.070573 0.14675 -0.058077 0.2096 -0.092132 -0.027779 0.43979 0.32616 0.14014 -0.060724 0.63343 -0.11468 -0.26773 -0.46813 -0.075335 -0.080399 0.0069592 0.061608 -0.3022 -0.50049 0.12684 -0.1437 0.38165 0.055094 -0.015169 -0.14184 -0.08079 0.16816 -0.26506 0.10278 -0.089256 -0.1771 -0.14732 -0.21379 0.17841 -0.19343 -0.24049 0.18631 0.159 -0.1066 -0.036565 0.15542 0.44704 0.46348 0.078179 0.071293
behinds 0.083346 -0.46299 0.22534 -0.33245 0.19313 0.052886 -0.17392 0.0022108 -0.14741 -0.037687 0.50127 -0.06516 -0.11268 -0.50907 -0.0092098 -0.0020684 -0.12712 -1.0252 0.19623 0.086762 0.37819 0.50791 0.20041 0.023925 -0.035328 -0.097939 0.27831 -0.19015 0.027441 0.13977 -0.081854 0.13172 -0.652 -0.011012 0.72107 0.21528 -0.29883 0.080479 -0.40631 0.53051 -0.14634 0.020708 -0.45819 0.067488 -0.047586 0.026017 0.20301 -0.059948 0.048496 0.28721 0.41347 -0.081754 -0.28743 -0.068756 -0.12567 0.019946 -0.19688 0.15698 -0.37115 0.3656 -0.072525 -0.012619 -0.37375 0.37865 -0.11455 -0.16121 -0.21076 -0.071928 0.60015 0.033486 0.174 -0.15434 0.72569 0.58683 0.31007 -0.37894 0.70367 -0.48134 0.43133 -0.25052 0.059637 0.52824 0.14474 -0.1894 -0.14949 0.88575 1.1674 -0.00050562 -0.093072 0.27722 0.034721 -0.14484 0.28171 0.51262 -0.40505 0.50017 -0.58284 0.10717 -0.010589 -0.30573 0.51937 -0.040665 0.50586 -0.23447 0.48214 -1.5924 0.11129 -0.51197 0.20182 -0.11447 -0.20934 0.061227 -0.37342 -0.020225 -0.023405 0.14953 0.23915 0.23998 -0.53733 -0.60519 -0.36973 -0.55149 0.07784 0.35904 -0.23327 -0.10387 -0.1958 0.41268 -0.22949 -0.37578 0.34734 0.14093 -0.2137 0.030802 -0.13423 0.55434 0.0079559 0.29566 -0.38194 0.1566 -0.77147 -0.29432 0.47995 -0.10311 0.10813 -0.1841 -0.26251 0.26801 0.0089975 0.94737 -0.0013157 -0.14538 -0.053036 -0.27438 -0.51823 0.433 -0.11901 -0.14226 0.17752 -0.23632 -0.29501 0.13868 -0.19636 0.35807 0.24754 -0.04945 -0.03417 -0.09616 0.12241 -0.27894 0.1438 -0.35519 0.48417 -0.056993 -0.11386 -0.13957 -0.44683 0.061402 -0.52767 0.28623 0.22275 0.24309 0.32689 -0.019705 -0.12744 0.51567 -0.05599 0.3747 0.53036 0.37613 0.054916 0.082033 -0.066301 -0.010902 -0.37638 -0.013608 -0.0061152 -0.32241 0.088958 0.13083 -0.10481 -0.2069 0.021768 -0.074655 0.29451 0.083531 0.017724 0.10887 0.22175 -0.1501 -0.12428 0.1477 0.092945 0.18111 -0.17639 0.21631 0.35497 -0.64845 0.038433 -0.21393 0.23219 -0.34892 -0.059524 -0.42021 0.40472 -0.40066 -0.15901 -0.45665 -0.055875 0.12893 -0.2538 -0.22349 0.24566 -0.19576 -0.042013 0.76161 0.10286 -0.10906 0.6249 0.011726 -0.14048 -0.24767 -0.12667 0.57221 -0.2854 -0.58593 -0.30861 0.15188 -0.10171 1.1914 -0.17147 -0.71103 0.13303 0.026696 0.30508 -0.020856 0.1568 -0.055138 -0.46151 0.082396 0.048867 -0.2762 -0.011042 0.22439 0.15502 0.15234 -0.25255 -0.28183 -0.19763 -0.20405 -0.20415 -0.32324 -0.26403 0.2377 -0.032714 0.081859 0.54393 0.16338 0.026524 0.24746 -0.38424 -0.19227 -0.55706 0.38458 0.0093959 0.16156 -0.3409 -0.55034 -0.31547 0.34998 -0.058706 -0.46762 0.098403 -0.16285 -0.18026 0.21785 0.45429 0.59137 0.31497 -0.62923
behindthe 0.48045 0.35006 0.31456 0.061796 -0.59709 0.22613 -0.32007 -0.066319 -0.29358 -0.99487 0.16656 0.2602 -0.62449 0.036635 0.50477 -0.19164 -0.27338 -1.1344 0.30932 -0.22785 0.21139 0.087592 0.72972 0.018802 0.042849 -0.33757 0.21776 0.069284 -0.71767 -0.14627 0.34897 -0.30628 -0.090358 -0.010057 0.11094 0.11767 -0.25338 0.23355 -0.13855 -0.040515 -0.91845 -0.78054 -0.41863 0.060261 0.035216 0.30394 0.25683 -0.92913 -0.27671 -0.16028 0.53498 -0.45534 -0.26533 0.12532 -0.17277 0.12748 0.022691 -0.22945 -0.13723 -0.15384 -0.18095 0.35214 -0.0021257 -0.34033 0.1767 0.041515 -0.13698 -0.6309 -0.076961 -0.15871 -0.1895 -0.48307 0.03722 0.4149 0.33782 0.1173 -0.19761 0.072838 -0.12015 -0.52775 -0.075115 0.35471 0.37013 -0.10098 0.24594 0.5102 0.62275 -0.14279 -0.60892 -0.6076 -0.094788 -0.27772 0.10279 0.26317 -0.2709 0.27116 -0.19894 -0.18028 -0.11222 -0.050659 0.078516 0.23274 0.17094 0.41426 0.7461 -1.6542 0.31569 -0.1112 -0.61301 -0.072423 0.0019264 0.65383 -0.1141 0.29901 -0.027872 0.68784 -0.11715 0.24125 -0.1567 0.13887 -0.28853 -0.68526 -0.013033 0.26424 -0.0020037 0.13883 -0.19373 0.16877 -0.043178 -0.125 -0.18915 0.43214 0.33055 0.27923 0.21808 -0.15218 -0.28899 0.094116 0.015659 -0.78243 0.025268 -0.20086 -0.16211 0.052887 0.20899 0.055572 0.18926 -0.036408 0.34725 0.28331 -0.191 -0.73153 0.079817 0.054873 -0.3943 0.2198 0.18125 -0.093501 0.26646 0.14923 -0.72253 -0.16598 -0.31042 0.51906 0.7591 0.52073 -0.12013 0.45021 0.070338 -0.26334 -0.0036563 -0.11131 0.70489 0.21198 0.070439 0.031119 -0.2056 0.13251 -0.36142 -0.36377 0.064311 0.081279 0.28638 0.040034 0.32617 0.33381 0.0060925 -0.25448 0.74066 -0.05175 -0.22518 0.24825 0.20027 0.11182 -0.44292 -0.038138 0.82642 -0.24136 -0.077491 -0.016248 -0.2731 0.077481 -0.22522 -0.19918 -0.092062 -0.43692 0.030461 -0.22471 0.066041 0.47516 0.19912 -0.075552 0.029753 0.00013558 -0.19091 -0.26668 0.33477 -0.3452 0.36566 -0.096702 -0.16369 0.18169 -0.32248 -0.27053 -0.29962 -0.58152 -0.092966 -0.30026 -0.30651 -0.07009 -0.062542 -0.035137 0.12332 -0.083254 -0.48355 -0.010475 -0.033878 0.2073 0.67418 0.075988 -0.18193 0.37297 0.050999 -0.19231 -0.26266 0.01479 -0.63442 0.042271 0.36334 0.051423 -0.38064 -0.39719 0.36231 -0.064587 0.21072 -0.79068 -0.3314 0.69658 0.053199 -0.032445 -0.15586 0.21008 -0.1715 -0.41571 0.21389 0.15989 0.19238 -0.14032 -0.87015 -0.18203 -0.51883 -0.048702 -0.15875 -0.42352 0.090999 0.17492 0.39446 0.14984 0.42959 -0.74855 -0.15149 -0.22718 -0.3851 -0.0041544 0.48906 -0.12824 -0.55752 0.0068775 0.098763 -0.062207 0.14326 0.21602 0.43446 -0.55004 -0.11766 0.17241 0.68589 0.45637 -0.26635 0.005628
#behind 0.12996 -0.35684 0.23797 -0.025449 -0.98683 -0.2763 -0.064113 0.11702 -0.15329 -1.3297 0.48826 -0.86897 -0.79437 0.17677 0.49013 0.44172 0.081361 -0.71051 0.71599 -0.47204 0.45164 0.66648 0.15338 0.30297 -0.49174 -0.34422 0.15196 -0.11381 -0.037049 0.10848 0.274 0.7265 -0.10721 -0.14042 -0.55077 -0.28848 -0.27264 -0.067608 -0.65212 0.72081 -0.45784 0.053356 0.0050201 -0.025821 0.10937 0.14555 0.0092532 0.33882 -0.41669 0.67949 1.2468 -0.40344 -0.84301 -0.3196 0.35252 -0.33745 0.091038 0.027508 0.66659 -0.52654 -0.44939 -0.37893 0.23389 -0.59482 -0.2402 0.017519 -0.14318 0.17761 -0.15746 -0.93756 0.28153 -0.15601 -0.47321 0.38029 -0.15983 0.12978 0.073034 -0.47914 0.50712 -0.38509 0.086102 0.26238 -0.11067 0.84062 -0.12455 1.1373 0.95138 0.34766 -0.80072 -0.089205 0.56878 -0.5693 0.31999 -0.81376 0.38971 -0.34001 0.31505 -0.016379 -0.042073 -0.23878 0.8861 -0.10423 0.56599 -0.11615 0.56609 -0.71175 0.50428 0.55047 -0.26251 -0.73242 0.52944 0.32419 -0.32591 -0.076313 -0.21796 -0.084445 0.1477 0.24903 -0.40142 0.34146 -0.27748 -0.2167 -0.36308 0.60959 -0.11995 -0.24259 0.40148 -0.36037 -0.14405 -0.35063 0.20454 0.43612 0.44951 0.66901 -0.48189 -0.35923 -0.26654 -0.1392 0.062746 -0.12138 0.21198 -0.68999 -0.77336 0.16084 0.15137 0.48412 0.0204 -0.40995 -0.22627 0.17296 -0.041682 -0.53134 -0.54645 0.035092 0.088356 -0.51737 -0.50742 -0.23875 0.8956 0.34996 -0.23134 -0.30017 0.024293 0.3776 0.49166 0.93105 -0.033297 -0.36777 -0.31755 -0.093444 0.36224 -0.4318 0.26915 0.47885 0.0027357 0.86341 -0.69815 -0.35091 0.48437 -0.039914 -0.49096 -0.1341 0.22849 0.4454 1.1319 0.42193 -0.40852 0.45331 -0.50014 0.62245 -0.13665 -0.65652 0.29706 -0.18981 0.077441 -1.0531 0.17804 0.087802 -0.37297 -0.25486 -0.6332 0.17225 0.712 -0.037736 -0.36129 -0.19892 0.29138 -0.21184 0.36054 -0.10905 0.23778 0.42861 -0.030845 0.64732 -0.8049 0.30888 1.1293 0.039428 1.1709 0.31087 0.088784 0.48952 -0.15813 0.3184 -0.53121 -0.22989 0.44825 -0.56696 -0.71586 -0.98731 -0.37539 0.050254 -0.59046 0.7665 -0.51434 -0.52871 0.20268 0.78468 0.36784 -0.3751 -0.012691 0.47588 0.15146 -0.81375 -0.17167 0.65038 -0.39371 0.54058 0.18503 0.26817 0.014537 -0.094892 0.48076 0.66655 0.25697 -0.35934 -0.1623 0.6102 -0.83143 -0.69224 -0.235 0.011446 -0.28337 -0.33216 0.011993 0.32158 0.91239 -0.31055 -0.43354 0.17592 -0.69751 -0.18235 -0.12841 -0.18444 0.28366 0.37972 -0.29046 0.86498 -0.047975 -0.60309 -0.39974 0.0018033 -0.61543 -0.10105 -0.017395 -0.36323 0.56897 -0.27235 -0.18127 0.45691 -0.11433 0.46966 0.23112 -0.16616 0.86802 -0.44272 -0.070277 0.72692 -0.13172 -0.50224
lookbehind -0.11566 -0.073374 0.63166 -0.084054 -0.19124 0.087828 0.40974 0.28631 1.72 -1.1231 0.71014 -0.38048 0.04346 0.38291 0.52621 0.71574 0.64581 -1.8504 -0.57404 0.42631 -0.62908 0.25687 -0.96477 -0.24638 0.10686 2.0635 0.45335 0.73567 0.37118 0.35045 1.2774 -0.085308 0.4496 -1.1485 -0.099662 0.25231 0.48117 -0.31713 -0.32365 0.036023 -0.15267 0.00089411 -0.11924 -0.16187 0.079057 -0.3018 0.023623 0.92362 -0.48236 -0.26806 -0.33532 0.26778 -0.084664 0.070853 -0.30124 0.49551 0.13854 0.036867 -0.084312 0.69306 -0.53717 0.026456 -0.94351 -1.0449 0.501 1.0338 0.78326 -0.9729 0.81437 -0.63288 -0.44897 0.29142 0.61227 0.86101 0.18342 1.4528 -1.5946 -0.084757 0.063266 -0.96335 0.13408 -1.6545 0.30823 0.13972 0.060499 0.88042 1.5047 0.81392 0.22282 0.30225 0.46035 0.82993 0.28308 1.1302 -0.18433 0.66304 -0.96726 -0.32181 0.90356 -0.4091 0.76727 0.18527 -0.54574 -0.95465 0.94962 -1.2655 2.1511 -0.55468 -1.0665 0.64183 -0.51735 -0.4974 -0.1737 -0.58473 -0.45654 -0.56803 0.14936 0.46499 0.037477 0.020377 -1.1585 0.47114 0.15294 -0.90508 -0.53051 1.1902 0.032514 0.51964 -0.77811 0.25351 0.59621 0.50068 -0.3665 0.41539 0.91944 0.35343 0.2379 -0.44617 -0.8188 0.24107 0.88641 0.62527 -0.5139 -1.6926 -0.1574 -0.9678 0.24711 -0.52392 0.8055 0.15013 -0.63222 0.58264 -1.3919 0.56478 -0.11974 1.3148 -0.63618 -1.9898 -0.4921 0.55213 0.10945 0.62145 -0.23076 0.75112 0.15618 1.4729 0.10571 -0.12642 -0.75732 -0.23303 0.00062947 -0.53461 -0.60842 -0.050417 -0.33272 0.52523 0.030056 -1.1859 0.12213 -0.50006 -0.46706 0.16012 -0.67102 -0.46464 -0.7491 0.52644 -0.87851 1.4112 -1.5197 -0.39988 -0.001208 0.89713 -0.16352 -0.0022345 -0.47976 0.31185 -0.058899 0.070064 0.98513 0.41909 -0.43517 0.61687 -1.5812 -1.0087 -0.18265 0.29621 0.06408 -0.96816 0.40063 -0.80148 1.6698 0.48441 1.3722 -1.1142 0.45294 0.36777 -0.954 0.75729 1.4774 -0.25316 1.2939 0.27615 1.0131 -0.094448 0.58431 -0.2305 -0.68285 -0.20801 0.35579 0.61172 0.78112 -1.1147 2.3307 -0.06193 -0.16633 0.68528 -0.63089 1.0657 0.010338 -0.2015 0.12735 0.93057 -0.80036 -0.35867 -0.66614 0.408 1.0903 0.58127 1.2056 -0.076887 -0.14676 -1.2264 0.2446 -1.3054 -0.96981 -1.1588 -0.58902 0.31865 1.253 -0.69516 -0.36946 0.23604 -1.1956 0.96288 -0.72849 0.24018 0.080755 0.4784 0.41738 0.19405 -0.31723 -0.28989 -0.10194 -0.064687 0.14646 -0.021992 0.63075 0.68086 0.62587 0.22685 0.092036 0.68411 -0.6394 0.51685 0.17802 -0.017434 -0.53107 0.97385 0.065287 -0.31247 0.4959 -0.26049 -0.94117 1.0011 0.47126 0.50555 -0.95903 0.26145 0.17178 0.024818
leftside 0.60908 0.1504 0.090277 0.06496 0.51722 0.48228 0.13615 -0.020265 -0.35894 -1.2388 0.32946 0.30651 -0.55171 0.067593 0.32762 0.5133 0.23403 -0.40737 -0.033124 0.86043 -0.070433 0.95454 0.24611 0.14431 0.08002 -0.13968 0.080492 0.16053 -0.023093 0.59736 0.34183 0.32757 -0.41824 0.39968 -0.15878 -0.2673 -0.28323 0.1242 -0.38364 0.14348 -0.38241 0.19987 -0.65968 -0.23764 -0.11962 0.092625 0.74132 -0.14556 -0.36492 0.41892 -0.045217 0.72034 0.39828 0.043238 0.39159 0.062586 0.30834 -0.28458 0.69088 -0.27768 -0.46461 -0.22149 -0.30937 -0.052943 0.23706 -0.09194 -0.23748 0.034684 0.30075 -0.080213 0.74329 -0.38387 0.12333 0.45506 -0.04437 -0.43148 0.026018 -0.10137 0.48541 -0.70651 -0.49446 0.52932 0.41744 0.5291 0.11142 0.55255 1.2408 -0.87562 -0.54163 -0.46125 0.33182 0.036581 0.46246 -0.19129 0.078066 -0.061418 0.75839 -0.23174 0.048578 0.58141 0.035668 -0.061283 0.23361 -0.11427 0.085907 -1.0322 -0.39345 -0.11277 0.27566 -0.1314 -1.0625 -0.31298 -0.325 0.0007606 -0.051817 0.96435 -0.40162 -0.49331 -0.025681 -0.27562 -0.29683 0.10945 -0.13145 0.3453 -0.34197 -0.79587 -0.28276 -0.62517 -0.32651 -0.27485 -0.11723 -0.32516 -0.52994 -0.10538 0.52409 -0.62598 0.017965 0.08908 -0.40528 -0.89108 -0.23624 -0.080168 -1.0123 0.23862 -0.11495 0.15576 0.021091 -0.27738 -0.16038 -0.094741 -0.20238 -0.50946 0.32519 0.077741 0.14934 -0.21619 -0.12469 0.69349 0.054579 0.29566 0.075661 -0.31343 -0.38425 0.4025 0.39537 0.32566 -0.2116 0.65704 -0.11777 0.097557 -0.16706 -0.5885 0.14825 0.22952 0.15869 -0.16678 0.10376 -0.080357 -0.39669 0.49872 -0.53244 -0.23916 0.54912 0.62852 0.14186 0.18653 0.48241 -0.32427 0.37428 -0.2323 -0.26082 -0.0034123 0.64713 -0.37915 0.3552 0.18709 0.63253 0.088876 0.50519 0.12123 -0.17356 0.4782 -0.894 -0.18027 0.40243 -0.28652 0.62487 0.29119 -0.23592 -0.32238 -0.25553 0.43243 -0.317 0.33746 -0.2415 -0.14931 -0.11976 0.31953 -0.082226 0.41851 0.19734 -0.12957 0.055417 0.10543 -0.046272 -0.46945 0.25559 0.023113 0.17654 0.042923 -0.4904 -0.29415 0.36741 -0.015024 -0.12007 -0.089626 -0.21421 0.054972 0.83407 -0.035784 -0.35244 0.5618 0.064152 0.17515 -0.081449 -0.22024 -0.73034 -0.18609 0.11376 -0.16121 -0.55956 -0.11223 0.15963 0.13841 0.41286 -9.5542e-05 0.022839 0.28185 -0.43443 0.39022 -0.053955 -0.42696 0.32676 -0.21243 0.41929 0.15289 -0.50868 -0.3327 -0.41658 0.17582 -0.33563 0.40221 0.77934 -0.20029 -0.12776 -0.72742 0.19569 -0.28504 0.41303 0.37311 -0.25008 -0.29991 -0.46283 0.26768 -0.032522 0.041574 -0.28442 -0.35383 0.16951 0.17561 0.095473 -0.10329 0.35252 -0.027146 -0.43132 -0.34125 -0.29808 -0.041675 0.71867 -0.31714
left 0.4809 0.47481 -0.25696 0.40881 0.29269 -0.22651 -0.55771 0.23452 0.24808 2.2736 0.070847 0.64184 -0.42292 -0.11917 0.050609 -0.016105 -0.42836 0.86047 -0.14406 -0.024028 -0.018143 -0.060308 -0.06442 0.059374 0.4232 -0.049186 -0.099282 0.061407 -0.073841 -0.48797 0.03764 0.14019 -0.20508 -0.32185 -0.14786 -0.12371 -0.58059 -0.23225 -0.54097 -0.25167 0.004786 0.1366 -0.31091 0.026813 -0.0045757 -0.1306 -0.03973 -0.2741 0.17807 -0.045292 0.054625 0.2029 -0.15589 0.42486 0.17338 -0.1429 -0.38029 -0.33815 -0.12978 0.15227 -0.45522 0.33428 -0.098883 -0.21784 0.39827 0.0020705 0.15316 0.053114 0.030317 0.53347 0.057855 0.45002 -0.14891 0.28182 0.2048 -0.27023 0.34254 -0.17456 -0.055716 -0.50604 -0.14737 0.57867 -0.10979 0.043821 -0.027674 -0.29018 0.41383 -0.6261 0.24063 0.045155 0.30141 0.25469 0.10472 0.051566 0.43405 -0.38453 -0.33008 0.22879 -0.034472 -0.60064 -0.39324 -0.51252 0.35462 -0.046076 0.10851 -0.10554 0.097125 0.17137 -0.057389 0.49756 -0.32468 -0.089717 0.47164 0.38145 0.15285 0.30351 0.14669 -0.092887 -0.48433 -0.067116 0.023275 -0.34066 0.46899 -0.0058297 0.30615 -0.20441 -0.015353 0.2532 -0.45721 0.071704 -0.019944 0.11296 -0.12992 -0.16786 -0.094871 -0.27194 0.0030408 0.29993 -0.2456 -0.18787 -1.695 0.18775 -0.071848 0.086269 0.36252 -0.036237 -0.24893 0.085516 -0.332 0.13701 -0.39201 -0.088377 0.63387 -0.10981 -0.31449 -0.24687 -0.079538 0.59111 -0.054491 -0.028342 -0.094772 -0.32737 -0.2196 -0.11508 -0.018144 -0.41786 -0.078455 0.34108 0.73126 -0.19493 -0.19131 -0.22529 -0.31668 -0.14581 0.20274 -0.024531 0.017311 0.01166 0.2438 -0.62892 0.13879 0.075314 0.067569 -0.08147 -0.31842 0.28176 -0.44151 -0.5062 -0.021439 0.31204 -0.055409 0.010179 0.057525 0.054297 0.10861 -0.23818 0.1034 -0.39643 -0.49504 0.34498 -0.23602 0.45724 -0.12063 0.045581 0.30846 0.4622 0.080387 -0.53767 0.15063 0.17582 0.14179 -0.11307 0.032323 -0.61921 0.56628 -0.15049 -0.15736 0.29304 -0.11458 0.26234 -0.33351 -0.097577 -0.17438 -0.24552 -0.024385 0.11365 -0.1483 0.35988 -0.077439 0.44116 -0.56213 -0.032292 0.56838 -0.15076 0.22831 -0.0086487 0.079837 0.078452 -0.11998 -0.26835 0.18415 0.47085 0.12019 0.37248 -0.070529 0.27533 -0.70139 -0.048968 -0.43827 0.21742 -0.37723 -0.060723 0.3365 0.0024827 0.34909 0.18299 -0.0012119 0.053354 0.092005 0.59163 0.093357 0.42882 0.33445 -0.24443 0.58607 0.092387 -0.057425 -0.58247 -0.26404 -0.55475 0.28541 -0.14646 0.10435 -0.52465 0.27835 -0.27655 -0.059505 0.10863 -0.44755 -0.05202 0.027933 -0.12914 -0.2997 0.69077 -0.21892 -0.2164 -0.24747 0.070332 0.078267 0.024383 0.17509 0.33921 0.3917 -0.34032 0.2171 0.019831 -0.37958 0.2593 -0.16764 -0.16269
left-behind 0.57008 -0.083826 -0.26286 0.098686 -0.27198 -0.17962 -0.14173 -0.43465 -0.34068 -0.71686 -0.28436 0.018623 -0.43161 0.12506 0.16699 -0.61702 -0.03618 -1.5992 0.65539 0.38241 0.014857 -0.49631 0.074059 -0.48801 0.48749 -0.34838 -0.22075 -0.023932 -0.20007 0.2065 0.34255 -0.59719 0.37507 -0.2627 -0.18514 0.27346 -0.16701 -0.2657 0.055811 0.38154 -0.015668 -0.27479 -0.45802 0.03911 -0.009268 0.14595 0.25468 -0.42117 0.10177 -0.18933 -0.44241 -0.48741 -0.064192 0.62649 -0.35683 -0.12364 -0.012008 -0.38296 -0.14034 0.75739 -0.28018 -0.048457 -0.40376 -0.42179 -0.10233 0.31293 0.46168 -0.10154 -0.21774 0.040763 0.14123 -0.079191 -0.46927 0.3538 -0.012431 -0.24076 -0.35439 -0.054145 0.38178 -0.39843 0.3923 0.46022 -0.16705 -0.42925 -0.46689 -0.15345 0.69131 -0.40745 -0.345 0.0084817 -0.4865 0.56484 0.49772 -0.25341 -0.31028 0.095118 -0.032092 -0.24234 0.21095 0.11407 -0.028305 -0.19973 0.24168 -0.3023 -0.39789 -1.943 -0.29957 -0.02091 0.13762 0.25186 -0.12201 0.66563 -0.60086 -0.017641 -0.31552 0.45837 0.04449 0.49818 -0.7167 -0.21646 -0.071988 0.051778 -0.093397 0.10707 0.75089 0.28552 0.63759 0.0079012 0.21049 0.13551 0.28285 0.23313 -0.26174 -0.68771 -0.45836 0.65665 -0.51299 0.020146 0.0085567 0.46485 0.25017 -0.99261 -0.29173 0.51818 -0.017148 0.43475 0.16179 -0.36409 -0.36862 0.17865 0.58446 0.053736 0.3001 0.24512 -0.3774 0.10321 -0.15767 -0.3149 -0.45278 -0.46518 0.098174 0.22802 -0.169 0.14573 0.2434 0.57845 0.056469 0.098394 0.50082 -0.051454 -0.21742 0.2312 0.084425 0.81456 -0.12289 0.27567 -0.29405 0.13053 -1.0294 -0.028742 -0.51682 -0.73209 0.11692 0.065064 0.48932 0.20594 -0.015045 -0.19015 0.37521 -0.57725 -0.38996 -0.27907 -0.37273 -0.2847 -0.35226 -0.14558 -0.052978 -0.026233 0.45455 -0.43222 0.29678 -0.21913 0.21626 -0.25745 -0.085053 0.36299 -0.20724 0.15798 -0.0079662 0.3403 0.69866 0.017613 0.3328 -0.67532 -0.15267 -0.46505 -0.11509 0.39697 0.27754 -0.34543 -0.052218 -0.51998 0.72035 0.37027 -0.18824 -0.27856 0.44947 -0.15038 -0.91213 -0.28718 -0.014649 -0.22118 0.52147 0.15748 0.11437 0.18587 0.36687 0.50965 0.3383 -0.43625 0.16424 0.077784 -0.43647 0.038524 -0.10801 -0.16236 -0.4425 -0.15041 0.0080453 0.49596 0.08554 0.18823 0.65044 0.25386 -0.030099 0.056993 -0.035367 0.49559 0.11144 1.0179 -0.77761 0.033295 0.082542 -0.010172 0.80609 0.40952 0.062845 -0.19329 -0.34155 0.18645 -0.073504 -0.025207 0.19245 -0.36887 -0.037374 -0.089622 -0.26013 0.33545 -0.41458 -0.62175 -0.97896 -0.20789 0.062882 -0.30739 0.32234 -0.052651 -0.33912 0.28902 -0.46255 -0.13705 -0.22673 0.2399 0.47952 -0.14633 0.25039 -0.029793 0.058492 0.32808 -0.58735 -0.36837
right 0.24498 0.17973 -0.49191 0.12429 0.5447 -0.11258 -0.22837 -0.042478 0.13143 2.6448 -0.2593 0.30903 -0.046845 0.058319 -0.19684 -0.022155 -0.22821 1.1278 -0.25243 0.11636 0.075598 0.048716 0.18727 -0.3249 0.028231 -0.30675 0.0058118 -0.24703 0.034676 -0.14749 0.091599 0.29625 0.075177 0.25304 0.086464 0.0039885 -0.15262 0.092531 -0.27002 -0.15531 -0.2312 0.23151 -0.47052 -0.20252 0.15311 0.28793 -0.38947 -0.22848 -0.28524 -0.077195 0.12883 0.3622 -0.15384 0.14605 0.21578 -0.099416 0.12956 -0.15691 -0.089919 -0.38154 -0.26094 -0.056228 0.15524 0.36326 0.39776 -0.15396 -0.21966 -0.0032676 0.19904 0.17114 0.029464 0.099572 0.53585 0.064559 -0.080625 -0.12405 0.32002 -0.29716 -0.20656 -0.056908 -0.17928 0.30715 0.091507 0.28014 -0.078898 0.24502 0.37296 -0.198 0.46024 0.016299 -0.031077 0.088482 0.1132 0.28058 0.18246 -0.20707 -0.51813 -0.35 0.15409 -0.23215 -0.21623 -0.1789 0.26002 0.062191 0.40326 -0.58886 0.013819 0.034795 -0.21756 0.38578 -0.15722 -0.12098 0.048606 0.13307 0.41042 0.26994 0.058005 -0.077229 -0.28127 -0.029094 0.17076 -0.02325 0.3222 0.32751 0.067714 0.14124 -0.27823 -0.17043 -0.15698 -0.063559 -0.13311 -0.26129 -0.096243 -0.1127 0.075621 -0.042429 0.018267 0.026391 -0.12504 0.067258 -1.7528 0.16933 -0.31463 0.064982 0.18901 -0.18856 -0.1567 -0.12425 -0.041318 0.034542 -0.38035 -0.099705 0.14546 -0.23221 -0.17633 0.11423 -0.06116 -0.073944 -0.14333 0.16908 -0.022675 0.096898 -0.13966 0.11116 0.053619 -0.37228 0.10494 0.090221 0.36803 0.14964 -0.098395 -0.31496 -0.17175 -0.43477 0.091846 0.083158 -0.3746 -0.11624 0.067491 -0.1067 0.23328 -0.21242 -0.17353 -0.22342 0.071008 0.1643 -0.16975 -0.52061 0.19495 0.058516 -0.080125 -0.20989 0.2199 -0.070059 0.27256 0.27535 0.15762 -0.15093 0.045139 0.73498 -0.3356 0.28694 -0.063161 -0.078611 0.13628 0.3835 0.12466 -0.24877 -0.10306 -0.15148 -0.058404 -0.24681 0.13591 -0.13578 0.15568 0.2031 -0.19195 0.21136 -0.31806 0.11897 -0.11872 -0.19652 -0.19575 -0.023096 0.46078 -0.41096 -0.28599 0.12833 0.20667 -0.20054 -0.42896 -0.011261 0.44412 0.24096 0.038138 -0.23037 0.3013 -0.201 0.0082807 -0.062039 0.48129 0.16556 0.084501 0.46395 -0.10592 -0.25434 -0.24599 -0.066526 -0.6626 0.27794 -0.22119 -0.14337 0.12034 -0.10214 -0.20465 0.51383 0.32635 0.077044 0.11295 -0.0011206 -0.19568 0.0088547 0.46611 -0.41398 0.3687 0.020834 -0.097065 -0.17683 0.69659 0.086765 0.027708 -0.14932 -0.13559 -0.38356 0.030686 -0.12247 0.045502 -0.063452 0.024374 0.11859 0.1423 -0.058382 -0.29158 0.099985 -0.13216 0.065382 -0.14264 -0.13792 0.41462 -0.15035 0.0049602 0.048956 0.0038412 -0.32283 0.27687 -0.26963 -0.11004 -0.15867 0.17981 0.19019
right-side 0.95903 0.098609 -0.048711 0.57352 0.024225 -0.042492 -0.23429 0.46593 -0.49727 -0.60913 0.24049 0.46723 -0.43269 -0.027245 0.09881 0.24253 0.017384 0.30595 0.10048 0.18312 -0.48785 0.34291 -0.11263 0.069823 0.53532 0.090873 0.11646 -0.47007 -0.11135 0.15102 0.28862 0.41752 -0.00056231 0.092436 -0.088318 -0.047291 -0.3244 -0.3501 -0.11445 -0.21496 0.06414 0.033985 -0.16305 -0.067148 -0.30472 -0.036067 0.21068 -0.34117 -0.12569 -0.11532 0.070306 0.39143 0.68582 0.094672 0.063486 -0.063417 0.65357 -0.44214 0.51442 -0.39416 -0.49419 0.50165 0.33089 0.35795 0.22327 0.16544 -0.13261 -0.035511 0.5995 0.57444 0.25319 0.1254 0.56247 0.25652 -0.32175 -0.61284 -0.18829 0.082637 0.036155 -0.29435 -0.50476 0.27487 0.3271 -0.016449 0.31691 0.70163 1.0678 0.014221 -0.43103 -0.23931 0.37121 -0.11897 0.38789 0.13157 -0.15952 0.15997 0.22109 -0.11068 0.29028 -0.55808 -0.26326 -0.49127 0.16211 -0.18146 0.1158 -1.5493 -0.045894 0.21454 -0.32007 0.16775 -0.71344 -0.11504 -0.38316 0.33302 -0.041224 0.19075 -0.68463 -0.17732 0.12453 -0.27987 -0.48765 -0.61512 0.72749 0.30659 -0.45935 -0.56807 -0.43975 0.28215 -0.30878 0.20046 -0.38096 0.083061 -0.22342 -0.11205 0.065839 -0.82901 -0.057674 0.17576 -0.38928 -0.042565 -0.29794 0.047183 -0.77905 -0.05562 -0.012104 0.10898 -0.30986 -0.20731 0.19386 0.080741 -0.63796 -0.44595 0.14921 0.27403 -0.47083 -0.09996 -0.18741 0.56079 -0.30765 -0.40562 0.02857 0.22896 0.0078521 -0.22795 -0.021117 0.10596 0.34241 0.40467 0.33395 -0.071217 0.054479 -0.22919 0.07741 0.21567 0.299 -0.45159 -0.21146 -0.13962 -1.0759 -0.19717 -0.32966 0.017598 0.079877 -0.031417 -0.07902 0.57453 0.57919 -0.69477 -0.76139 -0.030731 -0.19936 -0.38497 1.031 0.11721 -0.27583 0.3601 0.28867 0.13425 0.22868 0.36947 -0.51043 0.45508 0.0017146 -0.29998 0.28281 -0.04235 -0.1563 -0.04912 -0.37914 0.18755 0.21142 0.078525 0.014004 -0.30276 -0.22418 0.4926 -0.26745 0.074177 -0.0069932 -0.36566 0.5056 -0.33162 -0.057076 0.19911 0.67362 -0.31075 0.072097 -0.048292 0.069271 -0.27851 -0.4963 -0.32428 0.59054 -0.03876 0.19502 -0.45548 0.16822 0.24478 0.71498 -0.18792 -0.26419 0.46631 -0.029725 0.17197 -0.45248 -0.12114 -0.81834 0.3541 -0.070139 0.40412 -0.32769 -0.51555 -0.12315 -0.021663 -0.12556 0.033668 0.19882 0.27265 0.046419 0.20955 0.31243 -0.23671 -0.26318 -0.55262 0.95512 0.4562 -0.53683 0.34711 -0.34949 -0.20649 0.14585 0.11934 0.38563 -0.043829 0.040006 -0.52177 0.17875 -0.55781 -0.14008 -0.2431 -0.14484 -0.19213 -0.53506 -0.090867 -0.093945 -0.3905 -0.47533 -0.33474 0.017662 0.090252 -0.064735 0.24397 0.2063 -0.34045 -0.42164 -0.22753 -0.17297 -0.14049 0.11856 -0.63072
back 0.35041 0.19459 -0.41846 0.30688 0.51805 -0.11689 -0.3609 -0.17499 0.016637 2.5894 0.019716 0.18743 0.39314 0.052093 -0.16926 0.0050963 0.087438 0.91187 0.032085 -0.08645 -0.051429 0.20313 0.060013 0.10536 -0.12371 -0.14151 0.070561 -0.31499 -0.40443 -0.034383 -0.25246 0.0048256 -0.039014 -0.14167 0.35504 -0.10223 -0.21116 0.39578 0.053839 -0.27583 0.07812 0.21622 -0.020948 -0.38543 -0.013338 0.39204 -0.14154 -0.39045 -0.30678 0.19035 -0.0097405 0.22606 -0.015225 -0.22295 0.15184 0.15887 0.0024127 -0.044593 0.20477 0.023245 -0.35218 -0.08732 0.19361 0.13654 0.19208 0.20466 -0.28 0.10327 0.39454 0.42816 -0.02863 0.2274 0.34326 0.079836 0.13134 -0.099568 0.27187 -0.15669 -0.31628 -0.1725 0.0022446 0.35529 -0.36386 -0.14624 -0.19442 0.023485 0.34717 -0.30904 0.62228 0.35035 -0.06031 -0.019422 0.087185 -0.098596 0.074963 -0.20881 0.20849 -0.1599 -0.1593 -0.049756 -0.039671 -0.18292 -0.024132 -0.1817 0.15155 -0.3852 0.37773 0.32056 0.062483 -0.091683 -0.16966 -0.26089 0.43289 0.17171 0.10203 0.12598 -0.032789 -0.021106 0.10127 0.27351 0.088359 -0.14812 -0.010664 0.36146 0.054687 0.0033825 0.076605 0.27405 -0.1541 0.22102 0.066947 -0.17421 -0.39694 0.19431 0.36829 -0.15581 -0.091603 0.087705 -0.37601 0.055893 -2.0504 -0.21024 0.062795 -0.15098 0.23736 -0.0058344 -0.22144 0.076323 0.15665 -0.0024354 -0.26495 0.20844 0.065229 -0.010236 -0.12668 -0.091786 0.241 0.28797 0.17884 0.012604 -0.038889 0.2024 -0.10567 -0.13494 -0.20814 -0.060841 -0.044542 0.3198 0.26768 -0.26704 -0.073915 -0.11038 -0.47453 -0.28349 -0.23921 0.42716 0.23493 0.094353 0.10656 -0.26434 0.0003165 -0.30428 -0.16801 0.089553 0.28752 -0.038959 -0.22904 -0.17238 0.0034289 -0.16088 0.04903 -0.22635 0.042157 0.18659 -0.014459 0.19442 0.071554 -0.072572 -0.055055 0.30479 -0.1366 0.13282 -0.19604 0.18334 0.55146 0.14867 0.36321 -0.1497 -0.30646 -0.026157 -0.0076346 -0.43761 -0.046666 -0.21659 0.028934 0.11327 0.090242 0.24039 -0.31598 0.0015037 -0.33074 -0.048346 -0.45669 0.25884 0.02695 -0.058153 -0.15799 0.44194 0.48814 0.46518 -0.077016 -0.032348 0.26251 0.40159 0.26309 -0.21691 0.15074 0.072494 0.012142 -0.072999 0.037594 0.059731 -0.023319 0.51742 -0.040921 -0.22384 -0.29279 0.046185 -0.18407 0.38465 0.19424 -0.50013 -0.04639 0.084283 0.31295 0.1803 0.13999 -0.2028 -0.32559 0.29211 -0.23546 0.36263 0.027392 0.21131 0.29885 -0.26676 -0.1578 -0.20217 -0.20046 -0.073121 0.44263 -0.13213 -0.13992 -0.3406 0.12772 0.068814 0.1327 0.0046728 -0.14561 0.18268 -0.25012 -0.31786 -0.38744 0.30958 -0.089608 -0.19654 -0.015029 -0.13543 -0.074227 0.012219 -0.045036 0.062125 0.17031 -0.11261 -0.064504 -0.29588 -0.0017669 0.51521 0.035368 -0.15206
front 0.42815 0.11553 -0.30597 0.060676 0.37357 -0.11043 -0.092582 -0.03443 -0.75105 2.0571 0.38129 0.049216 -0.0051373 -0.082068 -0.23059 0.095132 -0.14477 1.7241 -0.24599 -0.16196 -0.38329 -0.0024151 0.23285 0.067553 -0.0008083 -0.37705 -0.20084 -0.15941 -0.49138 0.13103 0.2071 -0.053806 -0.35355 -0.057715 0.30123 -0.54527 -0.46968 0.18081 0.0029477 -0.33153 0.28219 0.010895 -0.28392 -0.15223 0.046789 0.13495 -0.27199 -0.37178 -0.34539 0.26987 0.18237 -0.11208 0.02483 0.11183 -0.1917 -0.040676 -0.017835 0.022011 0.12574 0.10403 -0.20143 0.24669 0.30774 0.43961 0.52477 -0.30033 -0.42172 -0.098353 0.31083 0.64955 -0.40285 -0.18756 0.45323 0.49116 -0.11366 -0.14624 0.28996 -0.23484 -0.35616 -0.065703 -0.55877 0.33251 0.11314 0.064034 -0.3948 0.40844 0.46399 0.44748 0.062165 0.22776 -0.064442 -0.17239 0.18589 0.25888 0.16251 -0.34498 0.19358 -0.13974 0.23644 -0.3137 -0.23505 -0.13289 0.19004 -0.47194 0.1605 -0.5372 0.65273 0.16864 -0.20041 0.16215 -0.31335 -0.10963 0.33825 0.29187 0.36978 0.063906 -0.3669 -0.36681 -0.051984 -0.013839 -0.46636 -0.76446 0.077272 0.038412 -0.66908 -0.43968 -0.063311 0.31456 -0.36916 -0.28717 -0.0099223 0.038093 -0.40969 -0.0044114 0.45196 -0.030832 -0.28416 -0.082635 -0.036842 -0.37358 -1.6049 -0.029616 0.031256 -0.10205 0.1743 -0.32193 -0.024456 -0.041231 0.18606 0.20973 -0.782 -0.020411 0.087377 -0.0044498 0.015995 0.4171 -0.30556 0.15999 0.00012705 -0.0046833 -0.19856 0.20451 -0.10519 -0.012336 0.47367 0.00906 -0.40581 0.39375 0.48175 -0.25771 0.1767 -0.35327 -0.19585 0.231 -0.04461 0.096604 -0.20836 0.57085 0.21676 -0.35731 -0.15254 -0.13483 -0.31128 -0.43587 -0.33493 0.18193 0.047336 -0.13015 0.35174 -0.20207 -0.057613 -0.18303 -0.030106 0.18503 -0.13854 -0.040246 0.031839 -0.42764 -0.68755 0.25726 -0.17718 0.45792 0.031883 -0.59955 0.54762 0.36048 0.20409 -0.49014 -0.52156 0.12359 -0.16362 0.058423 0.07641 -0.12496 0.33207 0.53506 -0.89439 -0.3045 -0.30688 -0.094233 -0.21189 -0.25875 0.0089248 0.30615 0.15649 -0.35203 0.11171 0.041108 0.38328 0.16817 -0.39728 -0.056208 0.38364 0.32997 0.5099 -0.27883 0.13569 0.21463 0.62553 0.10294 -0.25471 0.093416 -0.38184 0.35006 -0.24916 -0.381 -0.30867 0.03279 0.13315 0.0959 -0.2021 -0.2716 -0.17904 -0.3663 0.16774 0.61929 0.044002 -0.29163 -0.43938 0.27772 0.020641 -0.21493 -0.15522 -0.25966 0.29255 0.26863 -0.03464 0.26147 -0.62762 -0.15973 0.044468 -0.42089 -0.13591 -0.27681 0.17497 0.11106 0.52761 -0.10759 -0.13265 -0.36055 0.23405 0.29229 -0.26364 0.21806 -0.71503 -0.068008 -0.31217 0.24306 0.17641 -0.022926 -0.49718 -0.053511 0.23366 -0.23337 -0.12513 0.016813 0.45792 0.29907 0.48682 0.0067995
infront 0.10129 -0.51474 -0.42131 -0.093361 0.52219 -0.095147 0.038446 -0.09779 -0.24387 0.76886 0.040733 0.27768 -0.39901 -0.12677 -0.12271 0.31552 -0.049572 -0.045007 -0.27412 0.0093805 0.098802 0.17929 -0.034248 0.23309 0.25854 -0.22714 -0.044364 -0.61032 -0.50106 0.024795 0.040255 -0.0736 -0.17835 0.35586 0.18149 -0.31037 -0.069803 0.60889 0.14849 0.089902 0.38004 -0.43766 -0.59122 0.30595 -0.22165 0.13632 0.010518 -0.48491 -0.36061 0.22272 0.061087 -0.067597 -0.020428 0.37351 -0.57045 0.13462 -0.21874 -0.50303 0.40827 0.12234 -0.36877 0.058925 -0.30276 -0.58025 0.41983 -0.29425 -0.20161 -0.10321 0.16704 0.36525 -0.09538 -0.020364 0.51751 0.30106 -0.077823 -0.095198 0.51512 -0.17747 -0.32274 0.013102 -0.1544 0.31202 0.042436 0.25372 0.18539 0.45544 1.0184 -0.15107 -0.37991 -0.1529 -0.38678 -0.05023 -0.023729 -0.064002 0.01225 -0.025702 -0.24626 0.1664 -0.0087407 0.3632 0.0071168 -0.37562 0.62229 0.12029 0.50262 -0.90164 0.71627 -0.047887 -0.36682 -0.11292 -0.12914 -0.56978 -0.20786 -0.12264 0.23141 -0.11133 -0.14238 -0.18909 -0.17315 0.19254 -0.69348 -0.42377 0.20659 -0.067153 -0.24003 -0.39783 -0.25215 0.083768 -0.13044 -0.0011881 -0.24508 0.55798 -0.025121 -0.11019 -0.046067 -0.44924 0.22991 0.21933 0.074544 -0.16813 -1.9 0.14632 -0.20669 -0.00059182 -0.14802 0.17927 0.034759 0.058568 0.046461 0.21381 -0.50883 0.25611 0.30839 -0.056839 0.27717 0.11886 0.10973 0.37527 0.037128 -0.25377 -0.37687 -0.20213 -0.068464 0.47805 0.35116 0.00742 -0.58418 0.4348 0.094505 0.32394 0.003282 -0.36222 -0.1081 0.14358 0.0060129 -0.064736 -0.75372 0.7559 -0.52312 -0.13937 0.026525 0.071721 0.13784 -0.14224 0.06715 -0.2179 -0.27357 -0.062759 1.111 0.048908 0.34957 0.0098237 -0.33812 0.061627 0.15377 -0.038402 0.33382 -0.43087 -0.27326 -0.25996 -0.1679 0.69575 0.11695 -0.15315 0.045942 0.35999 0.19633 -0.077128 0.22628 -0.26572 -0.11289 -0.28822 0.058298 0.48414 0.21308 -0.11581 -0.41714 -0.90448 0.15886 0.25911 -0.035284 -0.21655 -0.098834 0.0071793 -0.13963 -0.10784 -0.23567 -0.23549 0.20499 -0.5297 -0.034455 0.21284 0.6287 0.064802 0.14765 -0.60074 0.30831 0.29052 0.015524 -0.07115 -0.25388 0.44998 -0.10649 0.049825 -0.080785 -0.75747 0.023243 -0.17818 0.079548 0.2145 -0.27435 -0.23047 0.016997 0.31241 0.54111 0.44184 0.037022 0.27309 -0.51663 -0.50198 0.064942 0.080603 0.37425 -0.49726 0.014347 -0.11341 -0.043559 0.34327 -0.50048 0.28692 -0.34195 -0.16132 0.0059043 0.58399 0.30972 0.14807 0.42563 -0.09548 -0.37962 -0.042657 0.22743 0.14373 0.01723 0.1506 0.023016 -0.032245 0.16325 0.089048 -0.052908 0.35588 0.23934 -0.44039 -0.095531 -0.45523 0.17129 0.52564 0.54425 0.22284 0.32821 0.5266
up -0.096463 0.12389 -0.28605 0.052724 0.20888 -0.18169 -0.26443 -0.047206 0.16012 2.3001 0.097596 -0.0058898 0.10893 -0.22366 -0.23571 -0.056547 -0.059947 1.1429 -0.22112 -0.024087 0.14944 -0.023279 0.070393 0.19009 0.044935 -0.11051 -0.009831 -0.13578 0.17711 -0.39369 -0.025818 0.44266 0.0048374 -0.042381 0.24167 -0.29847 -0.24983 0.23953 0.24875 0.067993 -0.065839 0.12578 -0.024222 -0.27452 0.10943 0.32607 0.041669 -0.13135 -0.17354 -0.016862 -0.012295 0.19615 -0.013456 -0.069882 0.032633 0.024246 0.043536 0.031809 0.049679 -0.11407 0.07324 0.13025 -0.13532 0.098608 0.2331 -0.12661 -0.21799 0.18511 0.16811 0.20195 0.012639 -0.0082433 0.62554 -0.10401 -0.15033 0.15589 0.31344 -0.2077 -0.07086 0.034078 0.12057 0.18595 -0.21302 -0.1744 -0.18467 -0.034833 0.16177 -0.029467 0.57901 0.2872 -0.035543 -0.061745 0.057917 -0.11064 -0.35121 -0.031191 -0.041303 -0.094447 0.076196 -0.10108 -0.073345 -0.015611 -0.25888 -0.36599 0.039111 -0.55924 0.30938 0.0068368 0.36044 -0.065255 0.2456 -0.40326 0.26185 0.05658 0.0098653 -0.03527 0.0031783 -0.043777 0.2207 0.12624 0.081068 -0.063392 -0.064348 -0.021332 -0.041419 -0.09307 -0.090147 -0.05711 0.02255 -0.081148 -0.12624 0.33097 0.016569 0.51625 0.42822 -0.026458 0.30417 0.10479 -0.017513 0.22991 -1.8903 0.031789 -0.087859 -0.10675 0.23458 -0.042964 -0.14242 0.045195 -0.041892 0.047763 0.013226 -0.012184 0.28113 -0.16528 -0.12152 -0.060089 0.18514 0.11174 0.24825 -0.085119 -0.064825 -0.1252 -0.27658 -0.18244 -0.30141 -0.075162 0.17921 -0.021954 0.11709 0.028595 -0.10822 -0.0023936 -0.013088 -0.35305 -0.082496 0.029582 -0.052775 -0.09256 0.056908 -0.051842 0.15394 0.060393 -0.2482 -0.088097 0.072627 0.18676 -0.19112 -0.11342 0.22741 0.20184 0.076376 -0.054851 -0.25541 0.063497 -0.18208 0.1895 -0.041459 0.033393 -0.22801 -0.12042 0.3386 -0.2917 -0.078686 -0.12395 0.25735 0.058061 0.06045 -0.029087 -0.14594 -0.38296 -0.17188 -0.36173 0.18198 -0.095196 -0.013597 0.34309 -0.1789 0.0094488 -0.064434 0.069627 -0.18211 0.0047041 -0.093 -0.084032 -0.15885 -0.27769 -0.041403 0.19149 0.0054113 0.069042 -0.081899 -0.18758 0.28271 0.11416 0.23994 -0.30819 -0.057137 0.0090666 -0.054356 0.14034 0.00063359 0.15855 0.039902 0.28852 0.26657 -0.28825 -0.31191 -0.15848 -0.15277 0.042971 -0.17401 -0.24414 -0.10416 0.22153 0.3084 0.4899 0.2023 -0.065061 -0.4078 -0.10336 -0.023965 0.57442 0.057488 0.013196 0.56377 -0.19826 -0.10246 -0.22486 0.12456 -0.16507 0.3938 0.00026621 -0.12691 -0.16473 -0.044725 0.063486 0.0098598 0.056291 0.071352 0.26127 -0.029241 0.021238 -0.31674 0.3877 0.00049857 -0.081211 0.37091 -0.22756 0.10646 -0.068732 -0.39487 0.081946 0.47536 -0.028736 -0.28095 -0.2267 0.10806 0.053104 0.072041 -0.30538
above -0.16607 -0.042649 -0.39959 -0.020059 0.25572 0.081685 -0.33017 0.26761 0.25963 2.017 0.18106 0.10013 -0.01113 -0.21397 0.18294 0.1934 0.074041 1.8495 -0.39141 -0.35296 0.028461 0.084585 0.10152 0.11227 0.035571 -0.16901 -0.17065 -0.17426 -0.42975 0.098671 0.25806 0.57191 0.18511 0.15817 -0.10349 -0.29992 -0.60036 0.30465 -0.019187 0.053021 -0.1143 -0.094849 0.16187 0.1131 0.16698 0.064098 -0.17491 -0.39572 0.22636 0.20831 -0.15889 0.16333 -0.065651 0.19154 -0.10142 -0.45054 -0.033533 -0.099843 -0.34176 -0.13319 -0.077459 -0.060457 -0.063425 0.5939 -0.095934 0.046205 -0.37763 0.057548 -0.16475 0.2766 -0.43576 -0.12884 0.59994 0.092942 0.25218 0.21018 -0.11567 -0.22884 0.12862 -0.1346 -0.20333 0.18776 -0.054152 0.14861 0.56771 -0.054984 0.36892 -0.24525 0.08508 -0.16279 -0.11154 -0.31195 0.068391 -0.14356 0.036262 -0.18692 0.033957 0.19877 0.6748 0.11088 0.092235 -0.089522 -0.029976 0.20454 0.31775 -0.86844 0.0363 0.076492 -0.12822 -0.20895 -0.029125 -0.42148 0.46485 0.16239 0.093111 -0.21212 -0.4381 -0.1508 0.31929 0.14959 -0.21128 -0.47202 0.074844 -0.22421 -0.036409 -0.16415 -0.25486 -0.44179 -0.003632 -0.20205 0.21237 -0.1147 -0.19879 0.22205 0.32649 0.23332 0.026048 0.17719 0.20119 0.088059 -0.72024 0.46371 -0.52825 -0.1927 0.0077276 -0.1002 0.26185 -0.15924 0.21945 0.27157 0.17931 -0.12768 -0.30906 0.049699 -0.17331 -0.087825 -0.20659 0.6932 0.030011 -0.17838 0.31675 -0.052237 -0.40579 0.062803 -0.093089 -0.27433 -0.23325 -0.098339 0.084843 -0.071734 0.11672 -0.1006 0.49756 -0.78173 -0.075388 0.24639 -0.10907 -0.36161 0.0066033 -0.13254 0.14082 -0.088104 0.18487 -0.21965 -0.0078069 -0.28348 -0.095919 -0.44002 0.21307 -0.24658 0.079889 0.069644 -0.21057 -0.26249 -0.010736 0.20248 -0.0728 -0.24749 -0.23155 0.189 0.3079 -0.21679 -0.72569 0.38203 0.20075 0.21181 0.071343 -0.15514 -0.44601 -0.42102 0.070102 -0.20133 -0.098049 -0.36178 0.11409 0.39737 -0.092251 0.33365 -0.17411 0.15439 -0.02758 0.059946 -0.034356 0.19328 0.25834 -0.43343 -0.18664 -0.024989 -0.058995 0.10013 -0.1285 0.29351 0.26135 0.66132 -0.044302 -0.19143 0.082789 -0.018242 -0.28763 0.1397 -0.24304 0.026969 0.059869 0.26454 0.47117 -0.24108 0.1317 0.010819 -0.37058 -0.17791 0.093395 -0.080566 0.24444 -0.052179 0.08397 0.93086 0.47166 0.10341 0.16492 -0.32272 0.54514 0.29324 0.14488 -0.22539 -0.041431 0.11736 0.094549 0.082246 0.66253 -0.23236 0.029569 0.17773 -0.0055553 -0.37933 0.17731 -0.1343 0.019529 -0.21326 -0.20539 -0.028357 0.22982 0.099536 -0.037302 -0.10626 -0.089964 -0.21051 -0.27012 0.23791 0.48552 -0.053045 -0.48621 0.45557 0.27947 -0.15713 -0.24681 -0.071899 -0.29474 0.0020887 0.33438 -0.2547
